<?xml version="1.0"?>
<opencv_storage>
<cascade>
  <stageType>BOOST</stageType>
  <featureType>HAAR</featureType>
  <height>24</height>
  <width>24</width>
  <stageParams>
    <boostType>GAB</boostType>
    <minHitRate>9.9500000476837158e-01</minHitRate>
    <maxFalseAlarm>5.0000000000000000e-01</maxFalseAlarm>
    <weightTrimRate>9.4999998807907104e-01</weightTrimRate>
    <maxDepth>1</maxDepth>
    <maxWeakCount>100</maxWeakCount></stageParams>
  <featureParams>
    <maxCatCount>0</maxCatCount>
    <featSize>1</featSize>
    <mode>BASIC</mode></featureParams>
  <stageNum>20</stageNum>
  <stages>
    <!-- stage 0 -->
    <_>
      <maxWeakCount>10</maxWeakCount>
      <stageThreshold>-1.1235159635543823e+00</stageThreshold>
      <weakClassifiers>
        <_>
          <internalNodes>
            0 -1 10 -3.4339230507612228e-02</internalNodes>
          <leafValues>
            8.1658291816711426e-01 -4.1526716947555542e-01</leafValues></_>
        <_>
          <internalNodes>
            0 -1 56 -1.8986627459526062e-01</internalNodes>
          <leafValues>
            7.5583583116531372e-01 -1.7006222903728485e-01</leafValues></_>
        <_>
          <internalNodes>
            0 -1 294 -1.5098148956894875e-02</internalNodes>
          <leafValues>
            4.3667080998420715e-01 -3.1739592552185059e-01</leafValues></_>
        <_>
          <internalNodes>
            0 -1 376 -2.3904896806925535e-04</internalNodes>
          <leafValues>
            -6.4307200908660889e-01 2.0287233591079712e-01</leafValues></_>
        <_>
          <internalNodes>
            0 -1 376 1.5514875121880323e-04</internalNodes>
          <leafValues>
            3.0062705278396606e-01 -5.4656291007995605e-01</leafValues></_>
        <_>
          <internalNodes>
            0 -1 171 -6.6691465675830841e-02</internalNodes>
          <leafValues>
            6.4454424381256104e-01 -2.3391136527061462e-01</leafValues></_>
        <_>
          <internalNodes>
            0 -1 64 3.0067586340010166e-04</internalNodes>
          <leafValues>
            1.7690461874008179e-01 -5.3658640384674072e-01</leafValues></_>
        <_>
          <internalNodes>
            0 -1 365 9.4935967354103923e-05</internalNodes>
          <leafValues>
            2.2532902657985687e-01 -4.5913249254226685e-01</leafValues></_>
        <_>
          <internalNodes>
            0 -1 365 -3.7959348992444575e-04</internalNodes>
          <leafValues>
            -6.9665843248367310e-01 1.5184576809406281e-01</leafValues></_>
        <_>
          <internalNodes>
            0 -1 246 1.9090220332145691e-02</internalNodes>
          <leafValues>
            -1.9726805388927460e-01 5.5698382854461670e-01</leafValues></_></weakClassifiers></_>
    <!-- stage 1 -->
    <_>
      <maxWeakCount>7</maxWeakCount>
      <stageThreshold>-1.5564374923706055e+00</stageThreshold>
      <weakClassifiers>
        <_>
          <internalNodes>
            0 -1 74 -1.1061270721256733e-02</internalNodes>
          <leafValues>
            8.0437046289443970e-01 -5.8253276348114014e-01</leafValues></_>
        <_>
          <internalNodes>
            0 -1 88 -3.7229388952255249e-02</internalNodes>
          <leafValues>
            6.8976646661758423e-01 -3.4664082527160645e-01</leafValues></_>
        <_>
          <internalNodes>
            0 -1 260 -2.6936078444123268e-02</internalNodes>
          <leafValues>
            7.6509183645248413e-01 -2.4003602564334869e-01</leafValues></_>
        <_>
          <internalNodes>
            0 -1 266 -3.5626166500151157e-03</internalNodes>
          <leafValues>
            5.7705765962600708e-01 -3.2156282663345337e-01</leafValues></_>
        <_>
          <internalNodes>
            0 -1 208 -2.4407180026173592e-03</internalNodes>
          <leafValues>
            6.9996625185012817e-01 -2.3530767858028412e-01</leafValues></_>
        <_>
          <internalNodes>
            0 -1 149 -2.6164657901972532e-03</internalNodes>
          <leafValues>
            4.6856111288070679e-01 -3.5299032926559448e-01</leafValues></_>
        <_>
          <internalNodes>
            0 -1 291 -3.0223322100937366e-03</internalNodes>
          <leafValues>
            5.2263301610946655e-01 -3.3112195134162903e-01</leafValues></_></weakClassifiers></_>
    <!-- stage 2 -->
    <_>
      <maxWeakCount>12</maxWeakCount>
      <stageThreshold>-1.6213932037353516e+00</stageThreshold>
      <weakClassifiers>
        <_>
          <internalNodes>
            0 -1 131 -3.1385473906993866e-02</internalNodes>
          <leafValues>
            7.6155716180801392e-01 -4.0498441457748413e-01</leafValues></_>
        <_>
          <internalNodes>
            0 -1 22 -2.8248820453882217e-02</internalNodes>
          <leafValues>
            5.7571572065353394e-01 -3.5653173923492432e-01</leafValues></_>
        <_>
          <internalNodes>
            0 -1 206 -9.0722404420375824e-03</internalNodes>
          <leafValues>
            5.6437563896179199e-01 -3.2151794433593750e-01</leafValues></_>
        <_>
          <internalNodes>
            0 -1 279 -4.2127808555960655e-03</internalNodes>
          <leafValues>
            4.4090253114700317e-01 -3.2495710253715515e-01</leafValues></_>
        <_>
          <internalNodes>
            0 -1 341 1.1154926382005215e-02</internalNodes>
          <leafValues>
            -2.2517843544483185e-01 6.2866109609603882e-01</leafValues></_>
        <_>
          <internalNodes>
            0 -1 145 -2.6840416248887777e-03</internalNodes>
          <leafValues>
            4.6075046062469482e-01 -2.5480905175209045e-01</leafValues></_>
        <_>
          <internalNodes>
            0 -1 207 -1.5641532372683287e-03</internalNodes>
          <leafValues>
            5.0234556198120117e-01 -2.0087635517120361e-01</leafValues></_>
        <_>
          <internalNodes>
            0 -1 300 -2.8864429332315922e-03</internalNodes>
          <leafValues>
            5.9280705451965332e-01 -1.8398335576057434e-01</leafValues></_>
        <_>
          <internalNodes>
            0 -1 254 -9.9822338670492172e-03</internalNodes>
          <leafValues>
            4.4842231273651123e-01 -2.3665575683116913e-01</leafValues></_>
        <_>
          <internalNodes>
            0 -1 21 -1.8043749034404755e-02</internalNodes>
          <leafValues>
            5.7986497879028320e-01 -1.9292774796485901e-01</leafValues></_>
        <_>
          <internalNodes>
            0 -1 16 -2.3293673992156982e-02</internalNodes>
          <leafValues>
            3.7978881597518921e-01 -2.6895800232887268e-01</leafValues></_>
        <_>
          <internalNodes>
            0 -1 270 1.7000646330416203e-03</internalNodes>
          <leafValues>
            -2.3100754618644714e-01 4.2743694782257080e-01</leafValues></_></weakClassifiers></_>
    <!-- stage 3 -->
    <_>
      <maxWeakCount>13</maxWeakCount>
      <stageThreshold>-1.3407241106033325e+00</stageThreshold>
      <weakClassifiers>
        <_>
          <internalNodes>
            0 -1 8 -1.1776780709624290e-02</internalNodes>
          <leafValues>
            5.4650133848190308e-01 -5.2302968502044678e-01</leafValues></_>
        <_>
          <internalNodes>
            0 -1 32 -7.0858985185623169e-02</internalNodes>
          <leafValues>
            6.1829590797424316e-01 -3.2840949296951294e-01</leafValues></_>
        <_>
          <internalNodes>
            0 -1 253 -9.8673946922644973e-05</internalNodes>
          <leafValues>
            3.9337098598480225e-01 -4.3852943181991577e-01</leafValues></_>
        <_>
          <internalNodes>
            0 -1 335 -2.5481877848505974e-02</internalNodes>
          <leafValues>
            7.4323594570159912e-01 -1.9743305444717407e-01</leafValues></_>
        <_>
          <internalNodes>
            0 -1 321 1.2666026123042684e-05</internalNodes>
          <leafValues>
            -3.5999283194541931e-01 3.6500599980354309e-01</leafValues></_>
        <_>
          <internalNodes>
            0 -1 136 -1.1730729602277279e-03</internalNodes>
          <leafValues>
            5.5895364284515381e-01 -2.2309066355228424e-01</leafValues></_>
        <_>
          <internalNodes>
            0 -1 302 3.3862039446830750e-02</internalNodes>
          <leafValues>
            -2.1753005683422089e-01 6.5748298168182373e-01</leafValues></_>
        <_>
          <internalNodes>
            0 -1 268 -5.2843704819679260e-02</internalNodes>
          <leafValues>
            5.9023165702819824e-01 -1.8645416200160980e-01</leafValues></_>
        <_>
          <internalNodes>
            0 -1 331 1.1360030621290207e-02</internalNodes>
          <leafValues>
            -2.0651867985725403e-01 5.1957905292510986e-01</leafValues></_>
        <_>
          <internalNodes>
            0 -1 17 -1.4422830194234848e-02</internalNodes>
          <leafValues>
            4.1993188858032227e-01 -2.6965931057929993e-01</leafValues></_>
        <_>
          <internalNodes>
            0 -1 93 7.8311190009117126e-04</internalNodes>
          <leafValues>
            -3.1328195333480835e-01 3.4816607832908630e-01</leafValues></_>
        <_>
          <internalNodes>
            0 -1 30 -2.1313272416591644e-02</internalNodes>
          <leafValues>
            5.6543570756912231e-01 -2.0002359151840210e-01</leafValues></_>
        <_>
          <internalNodes>
            0 -1 63 1.3688597083091736e-01</internalNodes>
          <leafValues>
            -1.3162645697593689e-01 7.3678189516067505e-01</leafValues></_></weakClassifiers></_>
    <!-- stage 4 -->
    <_>
      <maxWeakCount>12</maxWeakCount>
      <stageThreshold>-1.1040313243865967e+00</stageThreshold>
      <weakClassifiers>
        <_>
          <internalNodes>
            0 -1 67 -6.6338069736957550e-02</internalNodes>
          <leafValues>
            8.2042253017425537e-01 -2.3407022655010223e-01</leafValues></_>
        <_>
          <internalNodes>
            0 -1 76 3.8792088627815247e-02</internalNodes>
          <leafValues>
            -3.1064113974571228e-01 6.6669875383377075e-01</leafValues></_>
        <_>
          <internalNodes>
            0 -1 358 7.5871180742979050e-03</internalNodes>
          <leafValues>
            -1.7255435883998871e-01 7.9745525121688843e-01</leafValues></_>
        <_>
          <internalNodes>
            0 -1 366 2.0404637325555086e-04</internalNodes>
          <leafValues>
            2.2128039598464966e-01 -5.4523640871047974e-01</leafValues></_>
        <_>
          <internalNodes>
            0 -1 368 -6.9324945798143744e-04</internalNodes>
          <leafValues>
            -5.2370953559875488e-01 2.4364383518695831e-01</leafValues></_>
        <_>
          <internalNodes>
            0 -1 310 -2.1399158984422684e-02</internalNodes>
          <leafValues>
            6.1761003732681274e-01 -2.2065556049346924e-01</leafValues></_>
        <_>
          <internalNodes>
            0 -1 1 -1.0082359658554196e-03</internalNodes>
          <leafValues>
            -4.6663296222686768e-01 2.3333792388439178e-01</leafValues></_>
        <_>
          <internalNodes>
            0 -1 3 4.1196634992957115e-04</internalNodes>
          <leafValues>
            2.0051394402980804e-01 -5.9343081712722778e-01</leafValues></_>
        <_>
          <internalNodes>
            0 -1 123 -1.2771595269441605e-02</internalNodes>
          <leafValues>
            4.9696815013885498e-01 -2.3080775141716003e-01</leafValues></_>
        <_>
          <internalNodes>
            0 -1 263 -2.6565495878458023e-02</internalNodes>
          <leafValues>
            7.1954882144927979e-01 -1.1751765012741089e-01</leafValues></_>
        <_>
          <internalNodes>
            0 -1 0 -2.0356124150566757e-04</internalNodes>
          <leafValues>
            -3.6919042468070984e-01 2.8354567289352417e-01</leafValues></_>
        <_>
          <internalNodes>
            0 -1 320 -3.7372559309005737e-02</internalNodes>
          <leafValues>
            6.9483017921447754e-01 -1.6742074489593506e-01</leafValues></_></weakClassifiers></_>
    <!-- stage 5 -->
    <_>
      <maxWeakCount>7</maxWeakCount>
      <stageThreshold>-9.7686463594436646e-01</stageThreshold>
      <weakClassifiers>
        <_>
          <internalNodes>
            0 -1 12 -8.1686295568943024e-02</internalNodes>
          <leafValues>
            8.4921765327453613e-01 -3.4996435046195984e-01</leafValues></_>
        <_>
          <internalNodes>
            0 -1 58 -4.2737983167171478e-02</internalNodes>
          <leafValues>
            8.4695690870285034e-01 -2.1421064436435699e-01</leafValues></_>
        <_>
          <internalNodes>
            0 -1 115 4.2084999382495880e-02</internalNodes>
          <leafValues>
            -3.1713369488716125e-01 6.4910846948623657e-01</leafValues></_>
        <_>
          <internalNodes>
            0 -1 242 1.4604397583752871e-03</internalNodes>
          <leafValues>
            2.6058176159858704e-01 -8.4748816490173340e-01</leafValues></_>
        <_>
          <internalNodes>
            0 -1 27 1.4055541250854731e-03</internalNodes>
          <leafValues>
            2.0562243461608887e-01 -8.0205237865447998e-01</leafValues></_>
        <_>
          <internalNodes>
            0 -1 228 1.2591168284416199e-01</internalNodes>
          <leafValues>
            -3.2190626859664917e-01 5.2755445241928101e-01</leafValues></_>
        <_>
          <internalNodes>
            0 -1 326 3.8946047425270081e-02</internalNodes>
          <leafValues>
            -1.9842118024826050e-01 6.6661381721496582e-01</leafValues></_></weakClassifiers></_>
    <!-- stage 6 -->
    <_>
      <maxWeakCount>6</maxWeakCount>
      <stageThreshold>-8.1206303834915161e-01</stageThreshold>
      <weakClassifiers>
        <_>
          <internalNodes>
            0 -1 156 1.6078926622867584e-01</internalNodes>
          <leafValues>
            -3.8078293204307556e-01 9.1440796852111816e-01</leafValues></_>
        <_>
          <internalNodes>
            0 -1 242 -1.2963167391717434e-03</internalNodes>
          <leafValues>
            -8.3194142580032349e-01 3.6994960904121399e-01</leafValues></_>
        <_>
          <internalNodes>
            0 -1 107 -5.5859670042991638e-02</internalNodes>
          <leafValues>
            8.1494373083114624e-01 -2.9584664106369019e-01</leafValues></_>
        <_>
          <internalNodes>
            0 -1 133 -1.2665762007236481e-01</internalNodes>
          <leafValues>
            7.1157842874526978e-01 -2.9686158895492554e-01</leafValues></_>
        <_>
          <internalNodes>
            0 -1 34 1.4408979332074523e-03</internalNodes>
          <leafValues>
            2.6887327432632446e-01 -8.9930999279022217e-01</leafValues></_>
        <_>
          <internalNodes>
            0 -1 81 2.1862971782684326e-01</internalNodes>
          <leafValues>
            -2.8394374251365662e-01 7.6530051231384277e-01</leafValues></_></weakClassifiers></_>
    <!-- stage 7 -->
    <_>
      <maxWeakCount>18</maxWeakCount>
      <stageThreshold>-1.1505583524703979e+00</stageThreshold>
      <weakClassifiers>
        <_>
          <internalNodes>
            0 -1 108 -5.7341083884239197e-02</internalNodes>
          <leafValues>
            7.2934472560882568e-01 -2.8917378187179565e-01</leafValues></_>
        <_>
          <internalNodes>
            0 -1 33 -8.3827003836631775e-02</internalNodes>
          <leafValues>
            6.4826619625091553e-01 -2.4226447939872742e-01</leafValues></_>
        <_>
          <internalNodes>
            0 -1 106 2.6185493916273117e-02</internalNodes>
          <leafValues>
            -1.8996416032314301e-01 5.7820296287536621e-01</leafValues></_>
        <_>
          <internalNodes>
            0 -1 346 7.8797161579132080e-02</internalNodes>
          <leafValues>
            -1.2473600357770920e-01 7.6860898733139038e-01</leafValues></_>
        <_>
          <internalNodes>
            0 -1 37 3.1477975845336914e-01</internalNodes>
          <leafValues>
            -1.5820361673831940e-01 6.4044964313507080e-01</leafValues></_>
        <_>
          <internalNodes>
            0 -1 197 2.1531683206558228e-01</internalNodes>
          <leafValues>
            -1.3185250759124756e-01 6.2318551540374756e-01</leafValues></_>
        <_>
          <internalNodes>
            0 -1 143 3.6923572421073914e-02</internalNodes>
          <leafValues>
            -3.0312651395797729e-01 2.8924432396888733e-01</leafValues></_>
        <_>
          <internalNodes>
            0 -1 196 -3.2557435333728790e-03</internalNodes>
          <leafValues>
            -7.2169631719589233e-01 1.0010652989149094e-01</leafValues></_>
        <_>
          <internalNodes>
            0 -1 192 2.7949549257755280e-03</internalNodes>
          <leafValues>
            1.2790103256702423e-01 -5.5621236562728882e-01</leafValues></_>
        <_>
          <internalNodes>
            0 -1 85 8.0410629510879517e-02</internalNodes>
          <leafValues>
            -1.3902613520622253e-01 5.8977454900741577e-01</leafValues></_>
        <_>
          <internalNodes>
            0 -1 71 7.0531363599002361e-04</internalNodes>
          <leafValues>
            1.5503320097923279e-01 -5.4983681440353394e-01</leafValues></_>
        <_>
          <internalNodes>
            0 -1 68 -2.3356527090072632e-03</internalNodes>
          <leafValues>
            -5.8983010053634644e-01 1.1029808968305588e-01</leafValues></_>
        <_>
          <internalNodes>
            0 -1 216 -2.8334530070424080e-03</internalNodes>
          <leafValues>
            3.2766720652580261e-01 -2.1569699048995972e-01</leafValues></_>
        <_>
          <internalNodes>
            0 -1 303 4.4783841818571091e-02</internalNodes>
          <leafValues>
            -1.0528733581304550e-01 5.7049238681793213e-01</leafValues></_>
        <_>
          <internalNodes>
            0 -1 349 -3.5379424691200256e-02</internalNodes>
          <leafValues>
            5.6949067115783691e-01 -1.1295486241579056e-01</leafValues></_>
        <_>
          <internalNodes>
            0 -1 314 -6.2610954046249390e-04</internalNodes>
          <leafValues>
            2.8591805696487427e-01 -2.2264744341373444e-01</leafValues></_>
        <_>
          <internalNodes>
            0 -1 353 -6.7641714122146368e-04</internalNodes>
          <leafValues>
            -6.5833002328872681e-01 1.0345669090747833e-01</leafValues></_>
        <_>
          <internalNodes>
            0 -1 256 -2.9186005704104900e-03</internalNodes>
          <leafValues>
            -8.9056450128555298e-01 5.1973134279251099e-02</leafValues></_></weakClassifiers></_>
    <!-- stage 8 -->
    <_>
      <maxWeakCount>21</maxWeakCount>
      <stageThreshold>-1.3271750211715698e+00</stageThreshold>
      <weakClassifiers>
        <_>
          <internalNodes>
            0 -1 11 -1.1156243085861206e-01</internalNodes>
          <leafValues>
            6.6887414455413818e-01 -2.9533678293228149e-01</leafValues></_>
        <_>
          <internalNodes>
            0 -1 200 2.0735971629619598e-02</internalNodes>
          <leafValues>
            -2.6194593310356140e-01 5.8848249912261963e-01</leafValues></_>
        <_>
          <internalNodes>
            0 -1 57 -2.0973609387874603e-01</internalNodes>
          <leafValues>
            5.6322073936462402e-01 -1.8850079178810120e-01</leafValues></_>
        <_>
          <internalNodes>
            0 -1 47 -1.4865241944789886e-02</internalNodes>
          <leafValues>
            4.8838356137275696e-01 -1.8407139182090759e-01</leafValues></_>
        <_>
          <internalNodes>
            0 -1 119 -2.9469940345734358e-03</internalNodes>
          <leafValues>
            4.8845279216766357e-01 -1.8961076438426971e-01</leafValues></_>
        <_>
          <internalNodes>
            0 -1 1 5.9713155496865511e-04</internalNodes>
          <leafValues>
            1.7283268272876740e-01 -5.0567883253097534e-01</leafValues></_>
        <_>
          <internalNodes>
            0 -1 160 -8.4942381363362074e-04</internalNodes>
          <leafValues>
            4.0607225894927979e-01 -1.8007178604602814e-01</leafValues></_>
        <_>
          <internalNodes>
            0 -1 365 8.4198618424125016e-05</internalNodes>
          <leafValues>
            1.5018159151077271e-01 -4.5890939235687256e-01</leafValues></_>
        <_>
          <internalNodes>
            0 -1 354 -2.1997420117259026e-03</internalNodes>
          <leafValues>
            5.8432418107986450e-01 -1.2881015241146088e-01</leafValues></_>
        <_>
          <internalNodes>
            0 -1 191 -5.3960164077579975e-03</internalNodes>
          <leafValues>
            4.6251139044761658e-01 -1.5872441232204437e-01</leafValues></_>
        <_>
          <internalNodes>
            0 -1 319 1.2488923966884613e-02</internalNodes>
          <leafValues>
            -1.5950356423854828e-01 4.2629906535148621e-01</leafValues></_>
        <_>
          <internalNodes>
            0 -1 250 5.7814543833956122e-04</internalNodes>
          <leafValues>
            -1.1905332654714584e-01 5.4170447587966919e-01</leafValues></_>
        <_>
          <internalNodes>
            0 -1 167 1.3115976005792618e-02</internalNodes>
          <leafValues>
            9.7039461135864258e-02 -7.4572300910949707e-01</leafValues></_>
        <_>
          <internalNodes>
            0 -1 276 1.3239606232673395e-05</internalNodes>
          <leafValues>
            -2.5304543972015381e-01 2.6273164153099060e-01</leafValues></_>
        <_>
          <internalNodes>
            0 -1 296 -1.2861922383308411e-02</internalNodes>
          <leafValues>
            3.8218420743942261e-01 -1.8944832682609558e-01</leafValues></_>
        <_>
          <internalNodes>
            0 -1 244 3.1987708061933517e-03</internalNodes>
          <leafValues>
            -1.1517085880041122e-01 5.0605118274688721e-01</leafValues></_>
        <_>
          <internalNodes>
            0 -1 120 -2.0573202054947615e-03</internalNodes>
          <leafValues>
            4.1449314355850220e-01 -1.6051374375820160e-01</leafValues></_>
        <_>
          <internalNodes>
            0 -1 214 1.8480861035641283e-04</internalNodes>
          <leafValues>
            -2.8820568323135376e-01 2.4940648674964905e-01</leafValues></_>
        <_>
          <internalNodes>
            0 -1 173 -2.7456469833850861e-03</internalNodes>
          <leafValues>
            2.9541850090026855e-01 -2.1130885183811188e-01</leafValues></_>
        <_>
          <internalNodes>
            0 -1 317 1.0573327541351318e-01</internalNodes>
          <leafValues>
            7.4279792606830597e-02 -9.1546851396560669e-01</leafValues></_>
        <_>
          <internalNodes>
            0 -1 353 2.8049288084730506e-04</internalNodes>
          <leafValues>
            1.0766541212797165e-01 -5.1590096950531006e-01</leafValues></_></weakClassifiers></_>
    <!-- stage 9 -->
    <_>
      <maxWeakCount>23</maxWeakCount>
      <stageThreshold>-1.1840333938598633e+00</stageThreshold>
      <weakClassifiers>
        <_>
          <internalNodes>
            0 -1 75 -5.6750237941741943e-02</internalNodes>
          <leafValues>
            7.2492837905883789e-01 -2.8409090638160706e-01</leafValues></_>
        <_>
          <internalNodes>
            0 -1 137 2.9694363474845886e-02</internalNodes>
          <leafValues>
            -1.7069843411445618e-01 5.3245443105697632e-01</leafValues></_>
        <_>
          <internalNodes>
            0 -1 373 1.9497022731229663e-04</internalNodes>
          <leafValues>
            1.6208066046237946e-01 -5.2382254600524902e-01</leafValues></_>
        <_>
          <internalNodes>
            0 -1 267 -1.4263398945331573e-02</internalNodes>
          <leafValues>
            3.0297592282295227e-01 -2.9221993684768677e-01</leafValues></_>
        <_>
          <internalNodes>
            0 -1 96 -5.5589459836483002e-02</internalNodes>
          <leafValues>
            -5.4089963436126709e-01 2.0853371918201447e-01</leafValues></_>
        <_>
          <internalNodes>
            0 -1 13 -2.1231408754829317e-04</internalNodes>
          <leafValues>
            -5.0125426054000854e-01 9.7222223877906799e-02</leafValues></_>
        <_>
          <internalNodes>
            0 -1 13 1.2627043179236352e-04</internalNodes>
          <leafValues>
            1.7202506959438324e-01 -4.0689340233802795e-01</leafValues></_>
        <_>
          <internalNodes>
            0 -1 19 -8.8529050350189209e-02</internalNodes>
          <leafValues>
            -4.5968654751777649e-01 1.2618744373321533e-01</leafValues></_>
        <_>
          <internalNodes>
            0 -1 45 3.0473880469799042e-02</internalNodes>
          <leafValues>
            1.6362591087818146e-01 -4.3779262900352478e-01</leafValues></_>
        <_>
          <internalNodes>
            0 -1 46 7.7890399843454361e-03</internalNodes>
          <leafValues>
            -2.7493086457252502e-01 2.4048665165901184e-01</leafValues></_>
        <_>
          <internalNodes>
            0 -1 60 1.9589025760069489e-04</internalNodes>
          <leafValues>
            1.3354098796844482e-01 -4.2807495594024658e-01</leafValues></_>
        <_>
          <internalNodes>
            0 -1 169 -9.9111899733543396e-02</internalNodes>
          <leafValues>
            6.0651379823684692e-01 -9.6095837652683258e-02</leafValues></_>
        <_>
          <internalNodes>
            0 -1 9 -5.9594921767711639e-03</internalNodes>
          <leafValues>
            4.0137320756912231e-01 -1.7853352427482605e-01</leafValues></_>
        <_>
          <internalNodes>
            0 -1 126 -1.3432519510388374e-02</internalNodes>
          <leafValues>
            -7.5701463222503662e-01 8.6171463131904602e-02</leafValues></_>
        <_>
          <internalNodes>
            0 -1 325 4.8358961939811707e-03</internalNodes>
          <leafValues>
            -1.5806342661380768e-01 4.4203713536262512e-01</leafValues></_>
        <_>
          <internalNodes>
            0 -1 180 4.1156165301799774e-02</internalNodes>
          <leafValues>
            -1.7793463170528412e-01 3.2041981816291809e-01</leafValues></_>
        <_>
          <internalNodes>
            0 -1 52 -9.7272284328937531e-02</internalNodes>
          <leafValues>
            4.6518337726593018e-01 -1.3025072216987610e-01</leafValues></_>
        <_>
          <internalNodes>
            0 -1 38 2.8210512828081846e-03</internalNodes>
          <leafValues>
            2.1150580048561096e-01 -3.6187881231307983e-01</leafValues></_>
        <_>
          <internalNodes>
            0 -1 305 -4.0224120020866394e-02</internalNodes>
          <leafValues>
            3.9288809895515442e-01 -1.6866469383239746e-01</leafValues></_>
        <_>
          <internalNodes>
            0 -1 154 1.5709376893937588e-03</internalNodes>
          <leafValues>
            -1.8368496000766754e-01 3.1077840924263000e-01</leafValues></_>
        <_>
          <internalNodes>
            0 -1 127 1.5181988477706909e-02</internalNodes>
          <leafValues>
            1.1869480460882187e-01 -4.6590563654899597e-01</leafValues></_>
        <_>
          <internalNodes>
            0 -1 114 1.1146662756800652e-02</internalNodes>
          <leafValues>
            -2.2499263286590576e-01 2.5484535098075867e-01</leafValues></_>
        <_>
          <internalNodes>
            0 -1 86 5.3695421665906906e-03</internalNodes>
          <leafValues>
            1.0112009197473526e-01 -6.9342052936553955e-01</leafValues></_></weakClassifiers></_>
    <!-- stage 10 -->
    <_>
      <maxWeakCount>24</maxWeakCount>
      <stageThreshold>-1.1402146816253662e+00</stageThreshold>
      <weakClassifiers>
        <_>
          <internalNodes>
            0 -1 95 -3.1101327389478683e-02</internalNodes>
          <leafValues>
            4.9385246634483337e-01 -3.3274337649345398e-01</leafValues></_>
        <_>
          <internalNodes>
            0 -1 318 -1.9047832116484642e-02</internalNodes>
          <leafValues>
            5.2245950698852539e-01 -1.8749225139617920e-01</leafValues></_>
        <_>
          <internalNodes>
            0 -1 61 -1.6032183170318604e-01</internalNodes>
          <leafValues>
            6.4227408170700073e-01 -1.4005935192108154e-01</leafValues></_>
        <_>
          <internalNodes>
            0 -1 128 -6.3805910758674145e-03</internalNodes>
          <leafValues>
            -4.9329590797424316e-01 1.2912224233150482e-01</leafValues></_>
        <_>
          <internalNodes>
            0 -1 4 2.6742456248030066e-04</internalNodes>
          <leafValues>
            2.2203838825225830e-01 -3.4885305166244507e-01</leafValues></_>
        <_>
          <internalNodes>
            0 -1 321 1.2666026123042684e-05</internalNodes>
          <leafValues>
            -3.3084866404533386e-01 2.1379782259464264e-01</leafValues></_>
        <_>
          <internalNodes>
            0 -1 292 7.6394913776312023e-05</internalNodes>
          <leafValues>
            -2.7066543698310852e-01 2.4223420023918152e-01</leafValues></_>
        <_>
          <internalNodes>
            0 -1 282 -4.0408181957900524e-03</internalNodes>
          <leafValues>
            3.7141212821006775e-01 -1.3283969461917877e-01</leafValues></_>
        <_>
          <internalNodes>
            0 -1 158 3.6422528326511383e-02</internalNodes>
          <leafValues>
            -8.2820899784564972e-02 7.0517623424530029e-01</leafValues></_>
        <_>
          <internalNodes>
            0 -1 36 -3.4043073654174805e-02</internalNodes>
          <leafValues>
            5.4740965366363525e-01 -9.5089010894298553e-02</leafValues></_>
        <_>
          <internalNodes>
            0 -1 257 1.5876204706728458e-03</internalNodes>
          <leafValues>
            1.2342210859060287e-01 -4.7281530499458313e-01</leafValues></_>
        <_>
          <internalNodes>
            0 -1 80 -1.3167519867420197e-01</internalNodes>
          <leafValues>
            3.7379151582717896e-01 -1.5143616497516632e-01</leafValues></_>
        <_>
          <internalNodes>
            0 -1 277 3.2952572219073772e-03</internalNodes>
          <leafValues>
            9.6351131796836853e-02 -5.9691905975341797e-01</leafValues></_>
        <_>
          <internalNodes>
            0 -1 255 6.9170435890555382e-03</internalNodes>
          <leafValues>
            -1.1463125795125961e-01 4.7960609197616577e-01</leafValues></_>
        <_>
          <internalNodes>
            0 -1 144 1.1560596249182709e-05</internalNodes>
          <leafValues>
            -2.4064181745052338e-01 2.3950788378715515e-01</leafValues></_>
        <_>
          <internalNodes>
            0 -1 110 -2.7047980576753616e-02</internalNodes>
          <leafValues>
            2.7806487679481506e-01 -1.9940665364265442e-01</leafValues></_>
        <_>
          <internalNodes>
            0 -1 155 1.0451353155076504e-03</internalNodes>
          <leafValues>
            -2.4923264980316162e-01 2.1436342597007751e-01</leafValues></_>
        <_>
          <internalNodes>
            0 -1 90 -7.1834665723145008e-03</internalNodes>
          <leafValues>
            4.0800783038139343e-01 -1.2886224687099457e-01</leafValues></_>
        <_>
          <internalNodes>
            0 -1 271 -3.3483671722933650e-04</internalNodes>
          <leafValues>
            2.6232823729515076e-01 -1.9519738852977753e-01</leafValues></_>
        <_>
          <internalNodes>
            0 -1 204 1.3007902307435870e-03</internalNodes>
          <leafValues>
            -1.8495590984821320e-01 2.8873911499977112e-01</leafValues></_>
        <_>
          <internalNodes>
            0 -1 116 -5.0096947234123945e-04</internalNodes>
          <leafValues>
            -4.2197293043136597e-01 1.1773923784494400e-01</leafValues></_>
        <_>
          <internalNodes>
            0 -1 163 -3.8068727590143681e-03</internalNodes>
          <leafValues>
            3.7554877996444702e-01 -1.2705361843109131e-01</leafValues></_>
        <_>
          <internalNodes>
            0 -1 235 1.2441440958355088e-05</internalNodes>
          <leafValues>
            -2.3568648099899292e-01 2.2476541996002197e-01</leafValues></_>
        <_>
          <internalNodes>
            0 -1 113 -1.1307198554277420e-01</internalNodes>
          <leafValues>
            6.4159440994262695e-01 -1.0008271038532257e-01</leafValues></_></weakClassifiers></_>
    <!-- stage 11 -->
    <_>
      <maxWeakCount>24</maxWeakCount>
      <stageThreshold>-1.1992988586425781e+00</stageThreshold>
      <weakClassifiers>
        <_>
          <internalNodes>
            0 -1 209 -2.9193453490734100e-02</internalNodes>
          <leafValues>
            5.4228854179382324e-01 -2.5345623493194580e-01</leafValues></_>
        <_>
          <internalNodes>
            0 -1 55 -6.5319031476974487e-02</internalNodes>
          <leafValues>
            4.9764287471771240e-01 -2.3821134865283966e-01</leafValues></_>
        <_>
          <internalNodes>
            0 -1 78 5.5945381522178650e-02</internalNodes>
          <leafValues>
            -1.7892523109912872e-01 4.3545675277709961e-01</leafValues></_>
        <_>
          <internalNodes>
            0 -1 376 -4.3935186113230884e-04</internalNodes>
          <leafValues>
            -5.9238624572753906e-01 1.0130281001329422e-01</leafValues></_>
        <_>
          <internalNodes>
            0 -1 150 -1.1271206858509686e-05</internalNodes>
          <leafValues>
            2.7390235662460327e-01 -2.7460259199142456e-01</leafValues></_>
        <_>
          <internalNodes>
            0 -1 374 1.1750492267310619e-03</internalNodes>
          <leafValues>
            1.3143956661224365e-01 -5.7654243707656860e-01</leafValues></_>
        <_>
          <internalNodes>
            0 -1 187 -1.5268947463482618e-03</internalNodes>
          <leafValues>
            -5.0392037630081177e-01 1.2144623696804047e-01</leafValues></_>
        <_>
          <internalNodes>
            0 -1 344 -2.1089367568492889e-02</internalNodes>
          <leafValues>
            4.2039200663566589e-01 -1.4945092797279358e-01</leafValues></_>
        <_>
          <internalNodes>
            0 -1 334 2.3703461512923241e-02</internalNodes>
          <leafValues>
            -8.0986626446247101e-02 5.3566169738769531e-01</leafValues></_>
        <_>
          <internalNodes>
            0 -1 198 1.2528930710686836e-05</internalNodes>
          <leafValues>
            -2.5648671388626099e-01 2.2443367540836334e-01</leafValues></_>
        <_>
          <internalNodes>
            0 -1 293 6.6465383861213923e-04</internalNodes>
          <leafValues>
            -2.5836431980133057e-01 2.2355891764163971e-01</leafValues></_>
        <_>
          <internalNodes>
            0 -1 165 -1.6155665507540107e-03</internalNodes>
          <leafValues>
            -4.5884990692138672e-01 1.2070446461439133e-01</leafValues></_>
        <_>
          <internalNodes>
            0 -1 322 8.3624059334397316e-03</internalNodes>
          <leafValues>
            -1.7222759127616882e-01 3.3161723613739014e-01</leafValues></_>
        <_>
          <internalNodes>
            0 -1 65 1.1912405025213957e-03</internalNodes>
          <leafValues>
            1.5369223058223724e-01 -3.6820560693740845e-01</leafValues></_>
        <_>
          <internalNodes>
            0 -1 1 6.0285232029855251e-04</internalNodes>
          <leafValues>
            1.1025805026292801e-01 -4.8167511820793152e-01</leafValues></_>
        <_>
          <internalNodes>
            0 -1 233 1.5295381890609860e-03</internalNodes>
          <leafValues>
            6.2467653304338455e-02 -8.2615500688552856e-01</leafValues></_>
        <_>
          <internalNodes>
            0 -1 141 -5.0587169826030731e-03</internalNodes>
          <leafValues>
            3.1574141979217529e-01 -1.7796172201633453e-01</leafValues></_>
        <_>
          <internalNodes>
            0 -1 130 -7.6802931725978851e-02</internalNodes>
          <leafValues>
            4.6017369627952576e-01 -1.1910043656826019e-01</leafValues></_>
        <_>
          <internalNodes>
            0 -1 327 3.2658725976943970e-02</internalNodes>
          <leafValues>
            -1.7837169766426086e-01 2.8653874993324280e-01</leafValues></_>
        <_>
          <internalNodes>
            0 -1 213 -1.9569139927625656e-02</internalNodes>
          <leafValues>
            4.4693598151206970e-01 -1.3370952010154724e-01</leafValues></_>
        <_>
          <internalNodes>
            0 -1 101 1.6740589635446668e-03</internalNodes>
          <leafValues>
            1.2477693706750870e-01 -4.9883136153221130e-01</leafValues></_>
        <_>
          <internalNodes>
            0 -1 48 -1.2045552954077721e-02</internalNodes>
          <leafValues>
            3.4044212102890015e-01 -1.6100287437438965e-01</leafValues></_>
        <_>
          <internalNodes>
            0 -1 79 -4.8398174345493317e-02</internalNodes>
          <leafValues>
            7.7255046367645264e-01 -6.7880257964134216e-02</leafValues></_>
        <_>
          <internalNodes>
            0 -1 217 1.3171939644962549e-04</internalNodes>
          <leafValues>
            -2.0567642152309418e-01 2.4943865835666656e-01</leafValues></_></weakClassifiers></_>
    <!-- stage 12 -->
    <_>
      <maxWeakCount>22</maxWeakCount>
      <stageThreshold>-1.2381556034088135e+00</stageThreshold>
      <weakClassifiers>
        <_>
          <internalNodes>
            0 -1 111 -4.7391690313816071e-02</internalNodes>
          <leafValues>
            6.4420485496520996e-01 -2.7272728085517883e-01</leafValues></_>
        <_>
          <internalNodes>
            0 -1 205 -1.7990758642554283e-02</internalNodes>
          <leafValues>
            4.8280736804008484e-01 -1.9667744636535645e-01</leafValues></_>
        <_>
          <internalNodes>
            0 -1 14 -5.2372306585311890e-02</internalNodes>
          <leafValues>
            3.8593399524688721e-01 -1.9644799828529358e-01</leafValues></_>
        <_>
          <internalNodes>
            0 -1 374 -1.1189477518200874e-03</internalNodes>
          <leafValues>
            -5.4138046503067017e-01 9.8352774977684021e-02</leafValues></_>
        <_>
          <internalNodes>
            0 -1 183 2.2016029804944992e-02</internalNodes>
          <leafValues>
            -1.6530656814575195e-01 3.8991919159889221e-01</leafValues></_>
        <_>
          <internalNodes>
            0 -1 94 2.3364417254924774e-02</internalNodes>
          <leafValues>
            8.3611853420734406e-02 -6.4389663934707642e-01</leafValues></_>
        <_>
          <internalNodes>
            0 -1 157 3.2007347792387009e-02</internalNodes>
          <leafValues>
            -1.4847652614116669e-01 6.4772278070449829e-01</leafValues></_>
        <_>
          <internalNodes>
            0 -1 174 -3.5619549453258514e-03</internalNodes>
          <leafValues>
            4.3232125043869019e-01 -2.0748989284038544e-01</leafValues></_>
        <_>
          <internalNodes>
            0 -1 307 -9.8366457968950272e-03</internalNodes>
          <leafValues>
            6.4968049526214600e-01 -1.2278549373149872e-01</leafValues></_>
        <_>
          <internalNodes>
            0 -1 179 8.1900879740715027e-03</internalNodes>
          <leafValues>
            -2.0107552409172058e-01 2.8579312562942505e-01</leafValues></_>
        <_>
          <internalNodes>
            0 -1 248 8.9302554726600647e-02</internalNodes>
          <leafValues>
            -1.0708975046873093e-01 6.3556885719299316e-01</leafValues></_>
        <_>
          <internalNodes>
            0 -1 380 -7.9504109453409910e-04</internalNodes>
          <leafValues>
            -3.2961204648017883e-01 1.8963861465454102e-01</leafValues></_>
        <_>
          <internalNodes>
            0 -1 165 1.4840693911537528e-03</internalNodes>
          <leafValues>
            1.2810045480728149e-01 -4.4888916611671448e-01</leafValues></_>
        <_>
          <internalNodes>
            0 -1 84 4.2011803016066551e-03</internalNodes>
          <leafValues>
            -1.6457833349704742e-01 3.4993192553520203e-01</leafValues></_>
        <_>
          <internalNodes>
            0 -1 98 3.0149992555379868e-02</internalNodes>
          <leafValues>
            -7.6120994985103607e-02 6.3996022939682007e-01</leafValues></_>
        <_>
          <internalNodes>
            0 -1 49 -5.0553388427942991e-04</internalNodes>
          <leafValues>
            -5.7586753368377686e-01 1.0605384409427643e-01</leafValues></_>
        <_>
          <internalNodes>
            0 -1 70 -1.6902968287467957e-02</internalNodes>
          <leafValues>
            -5.2318227291107178e-01 9.9276207387447357e-02</leafValues></_>
        <_>
          <internalNodes>
            0 -1 252 -4.7227954491972923e-03</internalNodes>
          <leafValues>
            4.0986007452011108e-01 -1.4074783027172089e-01</leafValues></_>
        <_>
          <internalNodes>
            0 -1 224 8.9998595649376512e-04</internalNodes>
          <leafValues>
            1.2138276547193527e-01 -5.0881677865982056e-01</leafValues></_>
        <_>
          <internalNodes>
            0 -1 66 1.9184520468115807e-02</internalNodes>
          <leafValues>
            -1.0003948211669922e-01 5.8606368303298950e-01</leafValues></_>
        <_>
          <internalNodes>
            0 -1 275 -1.7747569363564253e-03</internalNodes>
          <leafValues>
            -5.2963638305664063e-01 1.0116223245859146e-01</leafValues></_>
        <_>
          <internalNodes>
            0 -1 278 -1.3523453380912542e-03</internalNodes>
          <leafValues>
            2.8265136480331421e-01 -1.7798885703086853e-01</leafValues></_></weakClassifiers></_>
    <!-- stage 13 -->
    <_>
      <maxWeakCount>27</maxWeakCount>
      <stageThreshold>-1.0792886018753052e+00</stageThreshold>
      <weakClassifiers>
        <_>
          <internalNodes>
            0 -1 264 -2.8514198958873749e-02</internalNodes>
          <leafValues>
            4.8362720012664795e-01 -2.1189025044441223e-01</leafValues></_>
        <_>
          <internalNodes>
            0 -1 295 4.5055955648422241e-02</internalNodes>
          <leafValues>
            -1.7348974943161011e-01 5.1823544502258301e-01</leafValues></_>
        <_>
          <internalNodes>
            0 -1 7 2.9973603785037994e-02</internalNodes>
          <leafValues>
            1.4104388654232025e-01 -5.8970546722412109e-01</leafValues></_>
        <_>
          <internalNodes>
            0 -1 226 -5.7222470641136169e-03</internalNodes>
          <leafValues>
            -5.3721463680267334e-01 7.1259453892707825e-02</leafValues></_>
        <_>
          <internalNodes>
            0 -1 336 -2.3260273039340973e-02</internalNodes>
          <leafValues>
            5.8671349287033081e-01 -1.0828632861375809e-01</leafValues></_>
        <_>
          <internalNodes>
            0 -1 378 4.3463576585054398e-03</internalNodes>
          <leafValues>
            1.5728445351123810e-01 -4.4858297705650330e-01</leafValues></_>
        <_>
          <internalNodes>
            0 -1 87 -2.5796748697757721e-02</internalNodes>
          <leafValues>
            4.1291737556457520e-01 -1.4005768299102783e-01</leafValues></_>
        <_>
          <internalNodes>
            0 -1 351 1.1613525450229645e-02</internalNodes>
          <leafValues>
            -1.2037661671638489e-01 4.8083928227424622e-01</leafValues></_>
        <_>
          <internalNodes>
            0 -1 176 1.2219714335515164e-05</internalNodes>
          <leafValues>
            -2.0306806266307831e-01 2.5825744867324829e-01</leafValues></_>
        <_>
          <internalNodes>
            0 -1 332 -1.9667828455567360e-03</internalNodes>
          <leafValues>
            -5.6059002876281738e-01 9.9625341594219208e-02</leafValues></_>
        <_>
          <internalNodes>
            0 -1 35 -7.4201766401529312e-03</internalNodes>
          <leafValues>
            5.5907320976257324e-01 -1.1694741994142532e-01</leafValues></_>
        <_>
          <internalNodes>
            0 -1 138 3.7652775645256042e-03</internalNodes>
          <leafValues>
            -1.7601846158504486e-01 2.8422284126281738e-01</leafValues></_>
        <_>
          <internalNodes>
            0 -1 379 4.4806520454585552e-03</internalNodes>
          <leafValues>
            1.3801650702953339e-01 -3.6947789788246155e-01</leafValues></_>
        <_>
          <internalNodes>
            0 -1 118 1.5377691015601158e-02</internalNodes>
          <leafValues>
            -1.8815667927265167e-01 2.4319201707839966e-01</leafValues></_>
        <_>
          <internalNodes>
            0 -1 152 1.7836593906395137e-04</internalNodes>
          <leafValues>
            -2.1271766722202301e-01 2.6799792051315308e-01</leafValues></_>
        <_>
          <internalNodes>
            0 -1 175 -5.9900783002376556e-02</internalNodes>
          <leafValues>
            -9.0797841548919678e-01 5.7559065520763397e-02</leafValues></_>
        <_>
          <internalNodes>
            0 -1 234 1.1841460036521312e-05</internalNodes>
          <leafValues>
            -2.3614357411861420e-01 2.0734697580337524e-01</leafValues></_>
        <_>
          <internalNodes>
            0 -1 89 -8.1471400335431099e-03</internalNodes>
          <leafValues>
            -5.6906527280807495e-01 7.7084124088287354e-02</leafValues></_>
        <_>
          <internalNodes>
            0 -1 232 4.6480046585202217e-03</internalNodes>
          <leafValues>
            -1.1300301551818848e-01 4.1174942255020142e-01</leafValues></_>
        <_>
          <internalNodes>
            0 -1 24 1.7220148583874106e-04</internalNodes>
          <leafValues>
            1.2620039284229279e-01 -3.9737641811370850e-01</leafValues></_>
        <_>
          <internalNodes>
            0 -1 273 -1.1749211698770523e-03</internalNodes>
          <leafValues>
            3.2216629385948181e-01 -1.6009446978569031e-01</leafValues></_>
        <_>
          <internalNodes>
            0 -1 259 8.3343815058469772e-03</internalNodes>
          <leafValues>
            -8.9948005974292755e-02 5.1891028881072998e-01</leafValues></_>
        <_>
          <internalNodes>
            0 -1 140 -3.2687239348888397e-02</internalNodes>
          <leafValues>
            3.1619542837142944e-01 -1.7023466527462006e-01</leafValues></_>
        <_>
          <internalNodes>
            0 -1 298 1.1560596249182709e-05</internalNodes>
          <leafValues>
            -2.1923148632049561e-01 2.2985915839672089e-01</leafValues></_>
        <_>
          <internalNodes>
            0 -1 343 -1.9140551739837974e-04</internalNodes>
          <leafValues>
            -2.1397359669208527e-01 2.5127363204956055e-01</leafValues></_>
        <_>
          <internalNodes>
            0 -1 249 1.5425182878971100e-02</internalNodes>
          <leafValues>
            -2.9105898737907410e-01 1.7070060968399048e-01</leafValues></_>
        <_>
          <internalNodes>
            0 -1 236 1.1238073557615280e-01</internalNodes>
          <leafValues>
            7.2544686496257782e-02 -6.9472116231918335e-01</leafValues></_></weakClassifiers></_>
    <!-- stage 14 -->
    <_>
      <maxWeakCount>22</maxWeakCount>
      <stageThreshold>-1.0854352712631226e+00</stageThreshold>
      <weakClassifiers>
        <_>
          <internalNodes>
            0 -1 5 -4.6431824564933777e-02</internalNodes>
          <leafValues>
            5.4445797204971313e-01 -2.6536965370178223e-01</leafValues></_>
        <_>
          <internalNodes>
            0 -1 62 -1.6855600476264954e-01</internalNodes>
          <leafValues>
            5.4383641481399536e-01 -1.6992232203483582e-01</leafValues></_>
        <_>
          <internalNodes>
            0 -1 367 -5.4304988589137793e-04</internalNodes>
          <leafValues>
            -5.1423317193984985e-01 1.5792176127433777e-01</leafValues></_>
        <_>
          <internalNodes>
            0 -1 82 2.5729337334632874e-01</internalNodes>
          <leafValues>
            -1.9617144763469696e-01 4.8546752333641052e-01</leafValues></_>
        <_>
          <internalNodes>
            0 -1 367 2.5213550543412566e-04</internalNodes>
          <leafValues>
            2.9387825727462769e-01 -3.7463980913162231e-01</leafValues></_>
        <_>
          <internalNodes>
            0 -1 28 -1.3319925405085087e-02</internalNodes>
          <leafValues>
            4.3105635046958923e-01 -2.1721695363521576e-01</leafValues></_>
        <_>
          <internalNodes>
            0 -1 151 1.7551777884364128e-02</internalNodes>
          <leafValues>
            7.9749651253223419e-02 -6.7453062534332275e-01</leafValues></_>
        <_>
          <internalNodes>
            0 -1 285 1.0218432173132896e-02</internalNodes>
          <leafValues>
            -1.9925121963024139e-01 2.9862430691719055e-01</leafValues></_>
        <_>
          <internalNodes>
            0 -1 43 5.2259787917137146e-02</internalNodes>
          <leafValues>
            4.5769039541482925e-02 -7.6432484388351440e-01</leafValues></_>
        <_>
          <internalNodes>
            0 -1 364 -6.9564036093652248e-03</internalNodes>
          <leafValues>
            6.1167883872985840e-01 -1.0024865716695786e-01</leafValues></_>
        <_>
          <internalNodes>
            0 -1 381 1.6889497637748718e-03</internalNodes>
          <leafValues>
            1.3318024575710297e-01 -4.5299890637397766e-01</leafValues></_>
        <_>
          <internalNodes>
            0 -1 304 6.2676221132278442e-02</internalNodes>
          <leafValues>
            -1.0338928550481796e-01 5.8848923444747925e-01</leafValues></_>
        <_>
          <internalNodes>
            0 -1 162 -1.2530708045233041e-04</internalNodes>
          <leafValues>
            1.6979095339775085e-01 -3.1972333788871765e-01</leafValues></_>
        <_>
          <internalNodes>
            0 -1 382 -4.4241547584533691e-04</internalNodes>
          <leafValues>
            -4.7108283638954163e-01 1.0563729703426361e-01</leafValues></_>
        <_>
          <internalNodes>
            0 -1 357 1.1885857209563255e-02</internalNodes>
          <leafValues>
            -1.1591023951768875e-01 5.0337833166122437e-01</leafValues></_>
        <_>
          <internalNodes>
            0 -1 166 5.5399117991328239e-03</internalNodes>
          <leafValues>
            1.0795573145151138e-01 -4.9915835261344910e-01</leafValues></_>
        <_>
          <internalNodes>
            0 -1 2 5.9409358073025942e-04</internalNodes>
          <leafValues>
            1.2326203286647797e-01 -3.9361274242401123e-01</leafValues></_>
        <_>
          <internalNodes>
            0 -1 311 -3.3366829156875610e-03</internalNodes>
          <leafValues>
            2.8765910863876343e-01 -1.7589968442916870e-01</leafValues></_>
        <_>
          <internalNodes>
            0 -1 122 -3.3507391810417175e-02</internalNodes>
          <leafValues>
            -8.8328725099563599e-01 5.8206528425216675e-02</leafValues></_>
        <_>
          <internalNodes>
            0 -1 328 -1.7321135965175927e-04</internalNodes>
          <leafValues>
            2.6085591316223145e-01 -1.8485623598098755e-01</leafValues></_>
        <_>
          <internalNodes>
            0 -1 370 -7.6144426129758358e-03</internalNodes>
          <leafValues>
            6.6228824853897095e-01 -6.7201696336269379e-02</leafValues></_>
        <_>
          <internalNodes>
            0 -1 355 -5.3994858171790838e-04</internalNodes>
          <leafValues>
            -5.3085482120513916e-01 1.0316869616508484e-01</leafValues></_></weakClassifiers></_>
    <!-- stage 15 -->
    <_>
      <maxWeakCount>30</maxWeakCount>
      <stageThreshold>-1.0659142732620239e+00</stageThreshold>
      <weakClassifiers>
        <_>
          <internalNodes>
            0 -1 15 -4.1231960058212280e-02</internalNodes>
          <leafValues>
            3.6782690882682800e-01 -2.7325025200843811e-01</leafValues></_>
        <_>
          <internalNodes>
            0 -1 318 -2.1162271499633789e-02</internalNodes>
          <leafValues>
            4.7859162092208862e-01 -1.6637165844440460e-01</leafValues></_>
        <_>
          <internalNodes>
            0 -1 6 -2.2809397429227829e-02</internalNodes>
          <leafValues>
            2.3981943726539612e-01 -2.8832432627677917e-01</leafValues></_>
        <_>
          <internalNodes>
            0 -1 340 -1.5010928735136986e-02</internalNodes>
          <leafValues>
            3.4964969754219055e-01 -1.8730817735195160e-01</leafValues></_>
        <_>
          <internalNodes>
            0 -1 190 -3.6975059192627668e-03</internalNodes>
          <leafValues>
            3.0530077219009399e-01 -1.8872523307800293e-01</leafValues></_>
        <_>
          <internalNodes>
            0 -1 161 -1.9407216459512711e-02</internalNodes>
          <leafValues>
            3.6769342422485352e-01 -1.4983531832695007e-01</leafValues></_>
        <_>
          <internalNodes>
            0 -1 329 4.6685360372066498e-02</internalNodes>
          <leafValues>
            -1.2912027537822723e-01 3.5595452785491943e-01</leafValues></_>
        <_>
          <internalNodes>
            0 -1 26 4.4796451926231384e-01</internalNodes>
          <leafValues>
            -1.1324736475944519e-01 5.6833618879318237e-01</leafValues></_>
        <_>
          <internalNodes>
            0 -1 309 1.2527080798463430e-05</internalNodes>
          <leafValues>
            -2.7648505568504333e-01 1.8490000069141388e-01</leafValues></_>
        <_>
          <internalNodes>
            0 -1 352 2.5098253972828388e-03</internalNodes>
          <leafValues>
            -8.1339463591575623e-02 5.8547723293304443e-01</leafValues></_>
        <_>
          <internalNodes>
            0 -1 207 6.0294275172054768e-03</internalNodes>
          <leafValues>
            -8.6281917989253998e-02 4.8750612139701843e-01</leafValues></_>
        <_>
          <internalNodes>
            0 -1 280 -1.4291873201727867e-02</internalNodes>
          <leafValues>
            3.1166061758995056e-01 -1.5841892361640930e-01</leafValues></_>
        <_>
          <internalNodes>
            0 -1 373 1.6507106192875654e-04</internalNodes>
          <leafValues>
            1.0526140779256821e-01 -5.2600681781768799e-01</leafValues></_>
        <_>
          <internalNodes>
            0 -1 373 -1.1562103463802487e-04</internalNodes>
          <leafValues>
            -3.3031052350997925e-01 1.6730368137359619e-01</leafValues></_>
        <_>
          <internalNodes>
            0 -1 92 3.9275689050555229e-03</internalNodes>
          <leafValues>
            -1.2646140158176422e-01 4.7385716438293457e-01</leafValues></_>
        <_>
          <internalNodes>
            0 -1 69 3.7601054646074772e-04</internalNodes>
          <leafValues>
            -2.3537525534629822e-01 2.1893411874771118e-01</leafValues></_>
        <_>
          <internalNodes>
            0 -1 339 -1.7701557953841984e-04</internalNodes>
          <leafValues>
            2.5105965137481689e-01 -1.7765760421752930e-01</leafValues></_>
        <_>
          <internalNodes>
            0 -1 135 -3.2722538890084252e-05</internalNodes>
          <leafValues>
            2.0082901418209076e-01 -2.2340868413448334e-01</leafValues></_>
        <_>
          <internalNodes>
            0 -1 288 -9.1794721083715558e-04</internalNodes>
          <leafValues>
            -6.0780870914459229e-01 7.6171465218067169e-02</leafValues></_>
        <_>
          <internalNodes>
            0 -1 20 -1.0592909529805183e-04</internalNodes>
          <leafValues>
            -3.0601400136947632e-01 1.5052801370620728e-01</leafValues></_>
        <_>
          <internalNodes>
            0 -1 97 9.4277989119291306e-03</internalNodes>
          <leafValues>
            -1.1169078201055527e-01 4.7493037581443787e-01</leafValues></_>
        <_>
          <internalNodes>
            0 -1 54 -1.1539867520332336e-01</internalNodes>
          <leafValues>
            -7.3695456981658936e-01 6.4992561936378479e-02</leafValues></_>
        <_>
          <internalNodes>
            0 -1 99 3.9751980453729630e-02</internalNodes>
          <leafValues>
            7.1766503155231476e-02 -5.6582719087600708e-01</leafValues></_>
        <_>
          <internalNodes>
            0 -1 124 2.8955317102372646e-03</internalNodes>
          <leafValues>
            -1.5609413385391235e-01 2.8138136863708496e-01</leafValues></_>
        <_>
          <internalNodes>
            0 -1 103 3.1624420080333948e-04</internalNodes>
          <leafValues>
            -1.8984980881214142e-01 2.3790997266769409e-01</leafValues></_>
        <_>
          <internalNodes>
            0 -1 199 4.0875533595681190e-03</internalNodes>
          <leafValues>
            -1.1674554646015167e-01 4.2496803402900696e-01</leafValues></_>
        <_>
          <internalNodes>
            0 -1 306 1.6969278454780579e-01</internalNodes>
          <leafValues>
            -4.1412118822336197e-02 8.6105287075042725e-01</leafValues></_>
        <_>
          <internalNodes>
            0 -1 330 -2.2027010563760996e-03</internalNodes>
          <leafValues>
            1.7459961771965027e-01 -2.2261397540569305e-01</leafValues></_>
        <_>
          <internalNodes>
            0 -1 371 1.3791415840387344e-03</internalNodes>
          <leafValues>
            8.3932518959045410e-02 -4.6625366806983948e-01</leafValues></_>
        <_>
          <internalNodes>
            0 -1 338 6.7373795900493860e-04</internalNodes>
          <leafValues>
            -1.0434642434120178e-01 4.0071490406990051e-01</leafValues></_></weakClassifiers></_>
    <!-- stage 16 -->
    <_>
      <maxWeakCount>33</maxWeakCount>
      <stageThreshold>-9.9432790279388428e-01</stageThreshold>
      <weakClassifiers>
        <_>
          <internalNodes>
            0 -1 109 -1.5074115991592407e-01</internalNodes>
          <leafValues>
            5.4848968982696533e-01 -1.6181449592113495e-01</leafValues></_>
        <_>
          <internalNodes>
            0 -1 125 5.1303468644618988e-02</internalNodes>
          <leafValues>
            -1.7249922454357147e-01 4.2622616887092590e-01</leafValues></_>
        <_>
          <internalNodes>
            0 -1 23 -1.2296801805496216e-01</internalNodes>
          <leafValues>
            3.6479437351226807e-01 -1.7887094616889954e-01</leafValues></_>
        <_>
          <internalNodes>
            0 -1 337 -3.0920978635549545e-02</internalNodes>
          <leafValues>
            4.1885307431221008e-01 -1.3481813669204712e-01</leafValues></_>
        <_>
          <internalNodes>
            0 -1 289 4.1610794141888618e-03</internalNodes>
          <leafValues>
            9.2273868620395660e-02 -6.5482968091964722e-01</leafValues></_>
        <_>
          <internalNodes>
            0 -1 3 2.4606165243312716e-04</internalNodes>
          <leafValues>
            1.1764511466026306e-01 -4.3335607647895813e-01</leafValues></_>
        <_>
          <internalNodes>
            0 -1 375 -1.7223170725628734e-03</internalNodes>
          <leafValues>
            -4.4332790374755859e-01 1.0446464270353317e-01</leafValues></_>
        <_>
          <internalNodes>
            0 -1 231 2.3148532956838608e-02</internalNodes>
          <leafValues>
            -8.1420153379440308e-02 5.7543164491653442e-01</leafValues></_>
        <_>
          <internalNodes>
            0 -1 134 3.3741183578968048e-02</internalNodes>
          <leafValues>
            -1.2958690524101257e-01 3.5559386014938354e-01</leafValues></_>
        <_>
          <internalNodes>
            0 -1 146 4.4835664331912994e-02</internalNodes>
          <leafValues>
            -1.0633558034896851e-01 4.6191945672035217e-01</leafValues></_>
        <_>
          <internalNodes>
            0 -1 201 2.3136276751756668e-02</internalNodes>
          <leafValues>
            -1.3270577788352966e-01 3.2737952470779419e-01</leafValues></_>
        <_>
          <internalNodes>
            0 -1 287 2.6391845196485519e-02</internalNodes>
          <leafValues>
            3.8539104163646698e-02 -8.2907003164291382e-01</leafValues></_>
        <_>
          <internalNodes>
            0 -1 350 1.5422899276018143e-02</internalNodes>
          <leafValues>
            -1.0899423807859421e-01 4.2109280824661255e-01</leafValues></_>
        <_>
          <internalNodes>
            0 -1 258 -9.5793968066573143e-03</internalNodes>
          <leafValues>
            -5.8714717626571655e-01 9.4857290387153625e-02</leafValues></_>
        <_>
          <internalNodes>
            0 -1 104 -3.4912027418613434e-02</internalNodes>
          <leafValues>
            2.9630964994430542e-01 -1.6253173351287842e-01</leafValues></_>
        <_>
          <internalNodes>
            0 -1 241 -9.3912631273269653e-03</internalNodes>
          <leafValues>
            -4.5476111769676208e-01 1.1216120421886444e-01</leafValues></_>
        <_>
          <internalNodes>
            0 -1 323 1.8133496865630150e-02</internalNodes>
          <leafValues>
            -1.3442569971084595e-01 3.8258412480354309e-01</leafValues></_>
        <_>
          <internalNodes>
            0 -1 18 1.7934001982212067e-01</internalNodes>
          <leafValues>
            -6.4505398273468018e-02 5.5132585763931274e-01</leafValues></_>
        <_>
          <internalNodes>
            0 -1 316 1.7601590603590012e-02</internalNodes>
          <leafValues>
            -1.0922572761774063e-01 4.0463995933532715e-01</leafValues></_>
        <_>
          <internalNodes>
            0 -1 170 -7.0904125459492207e-03</internalNodes>
          <leafValues>
            3.5503196716308594e-01 -1.2885026633739471e-01</leafValues></_>
        <_>
          <internalNodes>
            0 -1 3 -5.7771307183429599e-04</internalNodes>
          <leafValues>
            -3.4773531556129456e-01 1.4526377618312836e-01</leafValues></_>
        <_>
          <internalNodes>
            0 -1 211 1.6959393396973610e-03</internalNodes>
          <leafValues>
            1.1081463843584061e-01 -3.6965993046760559e-01</leafValues></_>
        <_>
          <internalNodes>
            0 -1 262 -2.8147769626230001e-05</internalNodes>
          <leafValues>
            1.7856059968471527e-01 -2.5234729051589966e-01</leafValues></_>
        <_>
          <internalNodes>
            0 -1 245 1.3653915375471115e-02</internalNodes>
          <leafValues>
            -9.8458126187324524e-02 4.9931171536445618e-01</leafValues></_>
        <_>
          <internalNodes>
            0 -1 40 8.1188679905608296e-04</internalNodes>
          <leafValues>
            1.3392506539821625e-01 -3.5462310910224915e-01</leafValues></_>
        <_>
          <internalNodes>
            0 -1 100 -7.7968118712306023e-03</internalNodes>
          <leafValues>
            3.5961228609085083e-01 -1.1747742444276810e-01</leafValues></_>
        <_>
          <internalNodes>
            0 -1 59 3.6778427660465240e-02</internalNodes>
          <leafValues>
            -1.1128292232751846e-01 3.6637210845947266e-01</leafValues></_>
        <_>
          <internalNodes>
            0 -1 186 -1.9630060705821961e-05</internalNodes>
          <leafValues>
            1.8478916585445404e-01 -2.8379365801811218e-01</leafValues></_>
        <_>
          <internalNodes>
            0 -1 177 2.2803647880209610e-05</internalNodes>
          <leafValues>
            -2.0042501389980316e-01 1.8860545754432678e-01</leafValues></_>
        <_>
          <internalNodes>
            0 -1 129 -7.8201596625149250e-04</internalNodes>
          <leafValues>
            1.9294174015522003e-01 -2.0685222744941711e-01</leafValues></_>
        <_>
          <internalNodes>
            0 -1 193 3.2782568596303463e-03</internalNodes>
          <leafValues>
            -9.9091313779354095e-02 4.0055659413337708e-01</leafValues></_>
        <_>
          <internalNodes>
            0 -1 31 -1.7900757491588593e-02</internalNodes>
          <leafValues>
            -6.8152976036071777e-01 7.3624372482299805e-02</leafValues></_>
        <_>
          <internalNodes>
            0 -1 312 1.3135368935763836e-02</internalNodes>
          <leafValues>
            -9.5239549875259399e-02 4.8459777235984802e-01</leafValues></_></weakClassifiers></_>
    <!-- stage 17 -->
    <_>
      <maxWeakCount>32</maxWeakCount>
      <stageThreshold>-1.0598950386047363e+00</stageThreshold>
      <weakClassifiers>
        <_>
          <internalNodes>
            0 -1 172 -4.9390394240617752e-02</internalNodes>
          <leafValues>
            4.5141452550888062e-01 -2.0185615122318268e-01</leafValues></_>
        <_>
          <internalNodes>
            0 -1 308 1.4145601540803909e-02</internalNodes>
          <leafValues>
            -1.8354827165603638e-01 3.9183008670806885e-01</leafValues></_>
        <_>
          <internalNodes>
            0 -1 286 1.3425350516627077e-05</internalNodes>
          <leafValues>
            -3.0527061223983765e-01 2.0239323377609253e-01</leafValues></_>
        <_>
          <internalNodes>
            0 -1 102 3.3835858106613159e-02</internalNodes>
          <leafValues>
            1.3291862607002258e-01 -4.6253532171249390e-01</leafValues></_>
        <_>
          <internalNodes>
            0 -1 269 -1.3961864169687033e-04</internalNodes>
          <leafValues>
            2.3155958950519562e-01 -2.2410562634468079e-01</leafValues></_>
        <_>
          <internalNodes>
            0 -1 72 -2.7444280683994293e-02</internalNodes>
          <leafValues>
            3.1857401132583618e-01 -1.4458240568637848e-01</leafValues></_>
        <_>
          <internalNodes>
            0 -1 347 -1.2802574783563614e-02</internalNodes>
          <leafValues>
            4.4681063294410706e-01 -1.0178067535161972e-01</leafValues></_>
        <_>
          <internalNodes>
            0 -1 360 1.2526284263003618e-04</internalNodes>
          <leafValues>
            1.2462053447961807e-01 -3.6880886554718018e-01</leafValues></_>
        <_>
          <internalNodes>
            0 -1 361 -9.3307532370090485e-04</internalNodes>
          <leafValues>
            -6.2147808074951172e-01 8.8667519390583038e-02</leafValues></_>
        <_>
          <internalNodes>
            0 -1 281 1.0541051160544157e-03</internalNodes>
          <leafValues>
            -1.5985654294490814e-01 2.8190338611602783e-01</leafValues></_>
        <_>
          <internalNodes>
            0 -1 283 -1.0347543284296989e-03</internalNodes>
          <leafValues>
            2.5593689084053040e-01 -1.5586546063423157e-01</leafValues></_>
        <_>
          <internalNodes>
            0 -1 132 -7.0514865219593048e-02</internalNodes>
          <leafValues>
            -8.7513875961303711e-01 5.2522871643304825e-02</leafValues></_>
        <_>
          <internalNodes>
            0 -1 237 -1.3237701496109366e-03</internalNodes>
          <leafValues>
            3.4431105852127075e-01 -1.4439587295055389e-01</leafValues></_>
        <_>
          <internalNodes>
            0 -1 227 -1.0059064254164696e-02</internalNodes>
          <leafValues>
            -6.7820447683334351e-01 7.1536660194396973e-02</leafValues></_>
        <_>
          <internalNodes>
            0 -1 181 -2.3125219158828259e-03</internalNodes>
          <leafValues>
            3.5024949908256531e-01 -1.2748406827449799e-01</leafValues></_>
        <_>
          <internalNodes>
            0 -1 188 -3.1337228137999773e-03</internalNodes>
          <leafValues>
            -5.1559305191040039e-01 8.8189832866191864e-02</leafValues></_>
        <_>
          <internalNodes>
            0 -1 345 2.7014575898647308e-02</internalNodes>
          <leafValues>
            -8.8148668408393860e-02 5.6845963001251221e-01</leafValues></_>
        <_>
          <internalNodes>
            0 -1 362 -9.1768391430377960e-03</internalNodes>
          <leafValues>
            5.0039070844650269e-01 -7.9447604715824127e-02</leafValues></_>
        <_>
          <internalNodes>
            0 -1 121 -6.7077493295073509e-03</internalNodes>
          <leafValues>
            1.9471894204616547e-01 -2.1561501920223236e-01</leafValues></_>
        <_>
          <internalNodes>
            0 -1 42 -2.0458412170410156e-01</internalNodes>
          <leafValues>
            -9.4314950704574585e-01 4.7739084810018539e-02</leafValues></_>
        <_>
          <internalNodes>
            0 -1 229 2.4406788725173101e-05</internalNodes>
          <leafValues>
            -1.9634918868541718e-01 2.1315178275108337e-01</leafValues></_>
        <_>
          <internalNodes>
            0 -1 225 4.5694699510931969e-03</internalNodes>
          <leafValues>
            9.5759421586990356e-02 -4.5790812373161316e-01</leafValues></_>
        <_>
          <internalNodes>
            0 -1 73 -1.3239606232673395e-05</internalNodes>
          <leafValues>
            1.6454735398292542e-01 -2.3181411623954773e-01</leafValues></_>
        <_>
          <internalNodes>
            0 -1 212 2.5972607545554638e-05</internalNodes>
          <leafValues>
            -2.1931771934032440e-01 1.8301691114902496e-01</leafValues></_>
        <_>
          <internalNodes>
            0 -1 60 -2.9720159363932908e-04</internalNodes>
          <leafValues>
            -3.8078498840332031e-01 1.1399738490581512e-01</leafValues></_>
        <_>
          <internalNodes>
            0 -1 51 -1.6498496988788247e-03</internalNodes>
          <leafValues>
            3.0886778235435486e-01 -1.3866324722766876e-01</leafValues></_>
        <_>
          <internalNodes>
            0 -1 220 1.6437589656561613e-03</internalNodes>
          <leafValues>
            -1.8304753303527832e-01 2.4584423005580902e-01</leafValues></_>
        <_>
          <internalNodes>
            0 -1 342 -8.2019641995429993e-03</internalNodes>
          <leafValues>
            6.1066275835037231e-01 -6.8896844983100891e-02</leafValues></_>
        <_>
          <internalNodes>
            0 -1 369 -1.9877050071954727e-03</internalNodes>
          <leafValues>
            -3.5992443561553955e-01 1.2251806259155273e-01</leafValues></_>
        <_>
          <internalNodes>
            0 -1 356 -2.8345696628093719e-03</internalNodes>
          <leafValues>
            6.1604475975036621e-01 -6.5923988819122314e-02</leafValues></_>
        <_>
          <internalNodes>
            0 -1 41 -6.9786772131919861e-02</internalNodes>
          <leafValues>
            -7.5754505395889282e-01 5.9160441160202026e-02</leafValues></_>
        <_>
          <internalNodes>
            0 -1 290 -1.0794507339596748e-02</internalNodes>
          <leafValues>
            5.4671978950500488e-01 -8.2063667476177216e-02</leafValues></_></weakClassifiers></_>
    <!-- stage 18 -->
    <_>
      <maxWeakCount>33</maxWeakCount>
      <stageThreshold>-9.9564504623413086e-01</stageThreshold>
      <weakClassifiers>
        <_>
          <internalNodes>
            0 -1 261 -1.8638689070940018e-02</internalNodes>
          <leafValues>
            3.8955822587013245e-01 -2.5405403971672058e-01</leafValues></_>
        <_>
          <internalNodes>
            0 -1 39 -4.5695113949477673e-03</internalNodes>
          <leafValues>
            4.5693609118461609e-01 -1.2583588063716888e-01</leafValues></_>
        <_>
          <internalNodes>
            0 -1 53 -2.0460972189903259e-01</internalNodes>
          <leafValues>
            3.4700503945350647e-01 -1.5853843092918396e-01</leafValues></_>
        <_>
          <internalNodes>
            0 -1 215 1.3167515397071838e-02</internalNodes>
          <leafValues>
            -2.2472637891769409e-01 2.4324251711368561e-01</leafValues></_>
        <_>
          <internalNodes>
            0 -1 164 -1.0671142488718033e-02</internalNodes>
          <leafValues>
            -7.1109592914581299e-01 5.5910650640726089e-02</leafValues></_>
        <_>
          <internalNodes>
            0 -1 153 1.8212600843980908e-04</internalNodes>
          <leafValues>
            -2.1463491022586823e-01 2.1531672775745392e-01</leafValues></_>
        <_>
          <internalNodes>
            0 -1 377 -1.8442947475705296e-04</internalNodes>
          <leafValues>
            -3.8611015677452087e-01 1.2641155719757080e-01</leafValues></_>
        <_>
          <internalNodes>
            0 -1 377 1.6324801254086196e-04</internalNodes>
          <leafValues>
            1.5082356333732605e-01 -3.6503991484642029e-01</leafValues></_>
        <_>
          <internalNodes>
            0 -1 148 -4.6948040835559368e-03</internalNodes>
          <leafValues>
            2.9652911424636841e-01 -1.7914809286594391e-01</leafValues></_>
        <_>
          <internalNodes>
            0 -1 194 -1.2031354010105133e-02</internalNodes>
          <leafValues>
            -5.9551304578781128e-01 7.3229707777500153e-02</leafValues></_>
        <_>
          <internalNodes>
            0 -1 178 3.2363180071115494e-03</internalNodes>
          <leafValues>
            -1.1663821339607239e-01 3.8892185688018799e-01</leafValues></_>
        <_>
          <internalNodes>
            0 -1 333 1.2702835192612838e-05</internalNodes>
          <leafValues>
            -1.9497080147266388e-01 2.6185402274131775e-01</leafValues></_>
        <_>
          <internalNodes>
            0 -1 297 -1.5530628152191639e-03</internalNodes>
          <leafValues>
            2.6865291595458984e-01 -1.7039135098457336e-01</leafValues></_>
        <_>
          <internalNodes>
            0 -1 29 -2.3735200986266136e-02</internalNodes>
          <leafValues>
            3.4763085842132568e-01 -1.2136134505271912e-01</leafValues></_>
        <_>
          <internalNodes>
            0 -1 360 -5.4830336011946201e-04</internalNodes>
          <leafValues>
            -5.7967460155487061e-01 7.4116326868534088e-02</leafValues></_>
        <_>
          <internalNodes>
            0 -1 91 -2.9749106615781784e-03</internalNodes>
          <leafValues>
            3.0570483207702637e-01 -1.3516271114349365e-01</leafValues></_>
        <_>
          <internalNodes>
            0 -1 359 1.2969139497727156e-03</internalNodes>
          <leafValues>
            -1.4285247027873993e-01 2.7238506078720093e-01</leafValues></_>
        <_>
          <internalNodes>
            0 -1 184 -5.2406014874577522e-03</internalNodes>
          <leafValues>
            -5.0852954387664795e-01 8.6566388607025146e-02</leafValues></_>
        <_>
          <internalNodes>
            0 -1 93 5.5417260155081749e-03</internalNodes>
          <leafValues>
            -1.4267681539058685e-01 2.9268130660057068e-01</leafValues></_>
        <_>
          <internalNodes>
            0 -1 222 5.2987574599683285e-04</internalNodes>
          <leafValues>
            -1.6479031741619110e-01 2.4413096904754639e-01</leafValues></_>
        <_>
          <internalNodes>
            0 -1 185 2.4069739083643071e-05</internalNodes>
          <leafValues>
            -2.1100859344005585e-01 2.0097412168979645e-01</leafValues></_>
        <_>
          <internalNodes>
            0 -1 139 1.9493836909532547e-02</internalNodes>
          <leafValues>
            7.6666079461574554e-02 -6.0646307468414307e-01</leafValues></_>
        <_>
          <internalNodes>
            0 -1 284 -4.9960762262344360e-03</internalNodes>
          <leafValues>
            5.9966921806335449e-01 -8.1283643841743469e-02</leafValues></_>
        <_>
          <internalNodes>
            0 -1 230 -1.3312711962498724e-04</internalNodes>
          <leafValues>
            2.2533734142780304e-01 -1.9189472496509552e-01</leafValues></_>
        <_>
          <internalNodes>
            0 -1 218 5.8855791576206684e-03</internalNodes>
          <leafValues>
            -1.7258544266223907e-01 2.6795688271522522e-01</leafValues></_>
        <_>
          <internalNodes>
            0 -1 363 1.9147014245390892e-03</internalNodes>
          <leafValues>
            8.5719861090183258e-02 -5.0451272726058960e-01</leafValues></_>
        <_>
          <internalNodes>
            0 -1 324 7.6982341706752777e-03</internalNodes>
          <leafValues>
            -1.4247860014438629e-01 3.0986836552619934e-01</leafValues></_>
        <_>
          <internalNodes>
            0 -1 299 -5.7577965781092644e-03</internalNodes>
          <leafValues>
            -5.8358633518218994e-01 7.0242017507553101e-02</leafValues></_>
        <_>
          <internalNodes>
            0 -1 315 -5.6187734007835388e-03</internalNodes>
          <leafValues>
            2.6150238513946533e-01 -1.5272451937198639e-01</leafValues></_>
        <_>
          <internalNodes>
            0 -1 44 4.5815873891115189e-03</internalNodes>
          <leafValues>
            -8.9097335934638977e-02 4.1217330098152161e-01</leafValues></_>
        <_>
          <internalNodes>
            0 -1 202 -5.1403823308646679e-03</internalNodes>
          <leafValues>
            3.2760939002037048e-01 -1.1747109889984131e-01</leafValues></_>
        <_>
          <internalNodes>
            0 -1 203 -1.5219144988805056e-03</internalNodes>
          <leafValues>
            -3.2403716444969177e-01 1.3143570721149445e-01</leafValues></_>
        <_>
          <internalNodes>
            0 -1 83 1.3984301686286926e-01</internalNodes>
          <leafValues>
            4.9167048186063766e-02 -8.6329841613769531e-01</leafValues></_></weakClassifiers></_>
    <!-- stage 19 -->
    <_>
      <maxWeakCount>32</maxWeakCount>
      <stageThreshold>-9.9118262529373169e-01</stageThreshold>
      <weakClassifiers>
        <_>
          <internalNodes>
            0 -1 247 5.3566046059131622e-02</internalNodes>
          <leafValues>
            -2.1074043214321136e-01 4.1619154810905457e-01</leafValues></_>
        <_>
          <internalNodes>
            0 -1 142 -2.0762268453836441e-02</internalNodes>
          <leafValues>
            4.6368891000747681e-01 -1.3137048482894897e-01</leafValues></_>
        <_>
          <internalNodes>
            0 -1 221 -4.3257237412035465e-03</internalNodes>
          <leafValues>
            2.6317292451858521e-01 -1.8974640965461731e-01</leafValues></_>
        <_>
          <internalNodes>
            0 -1 168 5.5903498083353043e-02</internalNodes>
          <leafValues>
            -1.2352225184440613e-01 6.2007784843444824e-01</leafValues></_>
        <_>
          <internalNodes>
            0 -1 301 -1.6586860641837120e-02</internalNodes>
          <leafValues>
            6.3916778564453125e-01 -8.4339626133441925e-02</leafValues></_>
        <_>
          <internalNodes>
            0 -1 365 -3.3890153281390667e-04</internalNodes>
          <leafValues>
            -5.2179670333862305e-01 1.3808912038803101e-01</leafValues></_>
        <_>
          <internalNodes>
            0 -1 365 9.4810384325683117e-05</internalNodes>
          <leafValues>
            1.4157092571258545e-01 -4.3662664294242859e-01</leafValues></_>
        <_>
          <internalNodes>
            0 -1 265 -3.0128494836390018e-03</internalNodes>
          <leafValues>
            -6.7095023393630981e-01 2.1269230172038078e-02</leafValues></_>
        <_>
          <internalNodes>
            0 -1 274 -4.6074687270447612e-04</internalNodes>
          <leafValues>
            -4.7470709681510925e-01 1.1907718330621719e-01</leafValues></_>
        <_>
          <internalNodes>
            0 -1 159 -1.0649608448147774e-02</internalNodes>
          <leafValues>
            3.2111641764640808e-01 -1.6756477952003479e-01</leafValues></_>
        <_>
          <internalNodes>
            0 -1 189 -3.0257680919021368e-03</internalNodes>
          <leafValues>
            2.0808881521224976e-01 -2.2503289580345154e-01</leafValues></_>
        <_>
          <internalNodes>
            0 -1 243 -1.5864134766161442e-03</internalNodes>
          <leafValues>
            -3.6311334371566772e-01 1.2013971805572510e-01</leafValues></_>
        <_>
          <internalNodes>
            0 -1 240 -1.3580965995788574e-01</internalNodes>
          <leafValues>
            5.1830410957336426e-01 -1.0103468596935272e-01</leafValues></_>
        <_>
          <internalNodes>
            0 -1 348 3.1389087438583374e-02</internalNodes>
          <leafValues>
            -6.2812335789203644e-02 5.4077172279357910e-01</leafValues></_>
        <_>
          <internalNodes>
            0 -1 112 -7.3973223567008972e-02</internalNodes>
          <leafValues>
            4.7737029194831848e-01 -8.2265205681324005e-02</leafValues></_>
        <_>
          <internalNodes>
            0 -1 195 -3.5122511908411980e-03</internalNodes>
          <leafValues>
            -8.0475318431854248e-01 6.0004934668540955e-02</leafValues></_>
        <_>
          <internalNodes>
            0 -1 251 -9.5704465638846159e-04</internalNodes>
          <leafValues>
            3.1027895212173462e-01 -1.2857292592525482e-01</leafValues></_>
        <_>
          <internalNodes>
            0 -1 272 -2.0308769308030605e-03</internalNodes>
          <leafValues>
            2.6794740557670593e-01 -1.5314580500125885e-01</leafValues></_>
        <_>
          <internalNodes>
            0 -1 210 -4.4836038723587990e-03</internalNodes>
          <leafValues>
            -7.5547105073928833e-01 4.2688097804784775e-02</leafValues></_>
        <_>
          <internalNodes>
            0 -1 372 1.8207635730504990e-03</internalNodes>
          <leafValues>
            8.1361241638660431e-02 -4.6520933508872986e-01</leafValues></_>
        <_>
          <internalNodes>
            0 -1 219 6.3408515416085720e-03</internalNodes>
          <leafValues>
            4.3005261570215225e-02 -7.6021540164947510e-01</leafValues></_>
        <_>
          <internalNodes>
            0 -1 105 1.1193857062608004e-03</internalNodes>
          <leafValues>
            -1.6486580669879913e-01 2.2151720523834229e-01</leafValues></_>
        <_>
          <internalNodes>
            0 -1 313 2.3818154659238644e-05</internalNodes>
          <leafValues>
            -1.8688109517097473e-01 1.9827090203762054e-01</leafValues></_>
        <_>
          <internalNodes>
            0 -1 223 1.6413133125752211e-03</internalNodes>
          <leafValues>
            -1.4307057857513428e-01 3.0805563926696777e-01</leafValues></_>
        <_>
          <internalNodes>
            0 -1 25 -7.5502176769077778e-03</internalNodes>
          <leafValues>
            -7.0842713117599487e-01 6.5320380032062531e-02</leafValues></_>
        <_>
          <internalNodes>
            0 -1 147 -1.3016676530241966e-03</internalNodes>
          <leafValues>
            2.6581060886383057e-01 -1.5119142830371857e-01</leafValues></_>
        <_>
          <internalNodes>
            0 -1 182 -1.4018566580489278e-03</internalNodes>
          <leafValues>
            2.3692715167999268e-01 -1.6114750504493713e-01</leafValues></_>
        <_>
          <internalNodes>
            0 -1 117 -4.9056787975132465e-04</internalNodes>
          <leafValues>
            -2.9730832576751709e-01 1.2478663027286530e-01</leafValues></_>
        <_>
          <internalNodes>
            0 -1 77 -9.0794153511524200e-03</internalNodes>
          <leafValues>
            4.8707857728004456e-01 -8.6543098092079163e-02</leafValues></_>
        <_>
          <internalNodes>
            0 -1 238 -1.3712673680856824e-03</internalNodes>
          <leafValues>
            3.8022896647453308e-01 -9.8886445164680481e-02</leafValues></_>
        <_>
          <internalNodes>
            0 -1 239 -9.6623465651646256e-04</internalNodes>
          <leafValues>
            2.4135437607765198e-01 -1.5907797217369080e-01</leafValues></_>
        <_>
          <internalNodes>
            0 -1 50 -8.2302778959274292e-02</internalNodes>
          <leafValues>
            -7.0419609546661377e-01 6.1689075082540512e-02</leafValues></_></weakClassifiers></_></stages>
  <features>
    <_>
      <rects>
        <_>
          0 0 1 2 -1.</_>
        <_>
          0 1 1 1 2.</_></rects>
      <tilted>0</tilted></_>
    <_>
      <rects>
        <_>
          0 0 1 4 -1.</_>
        <_>
          0 2 1 2 2.</_></rects>
      <tilted>0</tilted></_>
    <_>
      <rects>
        <_>
          0 0 3 2 -1.</_>
        <_>
          1 0 1 2 3.</_></rects>
      <tilted>0</tilted></_>
    <_>
      <rects>
        <_>
          0 0 2 2 -1.</_>
        <_>
          0 1 2 1 2.</_></rects>
      <tilted>0</tilted></_>
    <_>
      <rects>
        <_>
          0 0 2 3 -1.</_>
        <_>
          0 1 2 1 3.</_></rects>
      <tilted>0</tilted></_>
    <_>
      <rects>
        <_>
          0 0 10 8 -1.</_>
        <_>
          5 0 5 8 2.</_></rects>
      <tilted>0</tilted></_>
    <_>
      <rects>
        <_>
          0 0 10 8 -1.</_>
        <_>
          0 4 10 4 2.</_></rects>
      <tilted>0</tilted></_>
    <_>
      <rects>
        <_>
          0 0 24 2 -1.</_>
        <_>
          12 0 12 2 2.</_></rects>
      <tilted>0</tilted></_>
    <_>
      <rects>
        <_>
          0 0 15 4 -1.</_>
        <_>
          0 2 15 2 2.</_></rects>
      <tilted>0</tilted></_>
    <_>
      <rects>
        <_>
          0 0 19 3 -1.</_>
        <_>
          0 1 19 1 3.</_></rects>
      <tilted>0</tilted></_>
    <_>
      <rects>
        <_>
          0 0 20 4 -1.</_>
        <_>
          0 2 20 2 2.</_></rects>
      <tilted>0</tilted></_>
    <_>
      <rects>
        <_>
          0 0 22 9 -1.</_>
        <_>
          0 3 22 3 3.</_></rects>
      <tilted>0</tilted></_>
    <_>
      <rects>
        <_>
          0 0 23 6 -1.</_>
        <_>
          0 3 23 3 2.</_></rects>
      <tilted>0</tilted></_>
    <_>
      <rects>
        <_>
          0 1 1 2 -1.</_>
        <_>
          0 2 1 1 2.</_></rects>
      <tilted>0</tilted></_>
    <_>
      <rects>
        <_>
          0 1 9 18 -1.</_>
        <_>
          3 1 3 18 3.</_></rects>
      <tilted>0</tilted></_>
    <_>
      <rects>
        <_>
          0 1 6 20 -1.</_>
        <_>
          3 1 3 20 2.</_></rects>
      <tilted>0</tilted></_>
    <_>
      <rects>
        <_>
          0 1 15 9 -1.</_>
        <_>
          5 1 5 9 3.</_></rects>
      <tilted>0</tilted></_>
    <_>
      <rects>
        <_>
          0 1 12 4 -1.</_>
        <_>
          6 1 6 4 2.</_></rects>
      <tilted>0</tilted></_>
    <_>
      <rects>
        <_>
          0 1 24 7 -1.</_>
        <_>
          8 1 8 7 3.</_></rects>
      <tilted>0</tilted></_>
    <_>
      <rects>
        <_>
          0 1 24 18 -1.</_>
        <_>
          0 1 12 9 2.</_>
        <_>
          12 10 12 9 2.</_></rects>
      <tilted>0</tilted></_>
    <_>
      <rects>
        <_>
          0 2 1 2 -1.</_>
        <_>
          0 3 1 1 2.</_></rects>
      <tilted>0</tilted></_>
    <_>
      <rects>
        <_>
          0 2 6 14 -1.</_>
        <_>
          2 2 2 14 3.</_></rects>
      <tilted>0</tilted></_>
    <_>
      <rects>
        <_>
          0 2 6 21 -1.</_>
        <_>
          3 2 3 21 2.</_></rects>
      <tilted>0</tilted></_>
    <_>
      <rects>
        <_>
          0 2 18 10 -1.</_>
        <_>
          6 2 6 10 3.</_></rects>
      <tilted>0</tilted></_>
    <_>
      <rects>
        <_>
          0 3 1 2 -1.</_>
        <_>
          0 4 1 1 2.</_></rects>
      <tilted>0</tilted></_>
    <_>
      <rects>
        <_>
          0 3 7 3 -1.</_>
        <_>
          0 4 7 1 3.</_></rects>
      <tilted>0</tilted></_>
    <_>
      <rects>
        <_>
          0 3 24 21 -1.</_>
        <_>
          8 3 8 21 3.</_></rects>
      <tilted>0</tilted></_>
    <_>
      <rects>
        <_>
          0 4 1 3 -1.</_>
        <_>
          0 5 1 1 3.</_></rects>
      <tilted>0</tilted></_>
    <_>
      <rects>
        <_>
          0 4 2 18 -1.</_>
        <_>
          1 4 1 18 2.</_></rects>
      <tilted>0</tilted></_>
    <_>
      <rects>
        <_>
          0 4 6 4 -1.</_>
        <_>
          3 4 3 4 2.</_></rects>
      <tilted>0</tilted></_>
    <_>
      <rects>
        <_>
          0 4 9 5 -1.</_>
        <_>
          3 4 3 5 3.</_></rects>
      <tilted>0</tilted></_>
    <_>
      <rects>
        <_>
          0 4 4 6 -1.</_>
        <_>
          0 6 4 2 3.</_></rects>
      <tilted>0</tilted></_>
    <_>
      <rects>
        <_>
          0 4 12 17 -1.</_>
        <_>
          4 4 4 17 3.</_></rects>
      <tilted>0</tilted></_>
    <_>
      <rects>
        <_>
          0 4 8 20 -1.</_>
        <_>
          4 4 4 20 2.</_></rects>
      <tilted>0</tilted></_>
    <_>
      <rects>
        <_>
          0 5 1 2 -1.</_>
        <_>
          0 6 1 1 2.</_></rects>
      <tilted>0</tilted></_>
    <_>
      <rects>
        <_>
          0 5 3 9 -1.</_>
        <_>
          1 5 1 9 3.</_></rects>
      <tilted>0</tilted></_>
    <_>
      <rects>
        <_>
          0 5 9 4 -1.</_>
        <_>
          3 5 3 4 3.</_></rects>
      <tilted>0</tilted></_>
    <_>
      <rects>
        <_>
          0 5 24 19 -1.</_>
        <_>
          8 5 8 19 3.</_></rects>
      <tilted>0</tilted></_>
    <_>
      <rects>
        <_>
          0 6 1 12 -1.</_>
        <_>
          0 12 1 6 2.</_></rects>
      <tilted>0</tilted></_>
    <_>
      <rects>
        <_>
          0 6 3 8 -1.</_>
        <_>
          1 6 1 8 3.</_></rects>
      <tilted>0</tilted></_>
    <_>
      <rects>
        <_>
          0 6 4 3 -1.</_>
        <_>
          0 7 4 1 3.</_></rects>
      <tilted>0</tilted></_>
    <_>
      <rects>
        <_>
          0 7 20 8 -1.</_>
        <_>
          0 7 10 4 2.</_>
        <_>
          10 11 10 4 2.</_></rects>
      <tilted>0</tilted></_>
    <_>
      <rects>
        <_>
          0 8 8 16 -1.</_>
        <_>
          4 8 4 16 2.</_></rects>
      <tilted>0</tilted></_>
    <_>
      <rects>
        <_>
          0 8 20 6 -1.</_>
        <_>
          0 8 10 3 2.</_>
        <_>
          10 11 10 3 2.</_></rects>
      <tilted>0</tilted></_>
    <_>
      <rects>
        <_>
          0 8 11 3 -1.</_>
        <_>
          0 9 11 1 3.</_></rects>
      <tilted>0</tilted></_>
    <_>
      <rects>
        <_>
          0 8 24 10 -1.</_>
        <_>
          0 8 12 5 2.</_>
        <_>
          12 13 12 5 2.</_></rects>
      <tilted>0</tilted></_>
    <_>
      <rects>
        <_>
          0 8 14 9 -1.</_>
        <_>
          0 11 14 3 3.</_></rects>
      <tilted>0</tilted></_>
    <_>
      <rects>
        <_>
          0 9 6 7 -1.</_>
        <_>
          2 9 2 7 3.</_></rects>
      <tilted>0</tilted></_>
    <_>
      <rects>
        <_>
          0 9 6 8 -1.</_>
        <_>
          2 9 2 8 3.</_></rects>
      <tilted>0</tilted></_>
    <_>
      <rects>
        <_>
          0 11 1 2 -1.</_>
        <_>
          0 12 1 1 2.</_></rects>
      <tilted>0</tilted></_>
    <_>
      <rects>
        <_>
          0 11 21 3 -1.</_>
        <_>
          7 11 7 3 3.</_></rects>
      <tilted>0</tilted></_>
    <_>
      <rects>
        <_>
          0 11 16 3 -1.</_>
        <_>
          0 12 16 1 3.</_></rects>
      <tilted>0</tilted></_>
    <_>
      <rects>
        <_>
          0 13 10 11 -1.</_>
        <_>
          5 13 5 11 2.</_></rects>
      <tilted>0</tilted></_>
    <_>
      <rects>
        <_>
          0 14 24 8 -1.</_>
        <_>
          8 14 8 8 3.</_></rects>
      <tilted>0</tilted></_>
    <_>
      <rects>
        <_>
          0 14 23 9 -1.</_>
        <_>
          0 17 23 3 3.</_></rects>
      <tilted>0</tilted></_>
    <_>
      <rects>
        <_>
          0 15 10 8 -1.</_>
        <_>
          5 15 5 8 2.</_></rects>
      <tilted>0</tilted></_>
    <_>
      <rects>
        <_>
          0 15 24 7 -1.</_>
        <_>
          8 15 8 7 3.</_></rects>
      <tilted>0</tilted></_>
    <_>
      <rects>
        <_>
          0 15 24 8 -1.</_>
        <_>
          8 15 8 8 3.</_></rects>
      <tilted>0</tilted></_>
    <_>
      <rects>
        <_>
          0 16 10 5 -1.</_>
        <_>
          5 16 5 5 2.</_></rects>
      <tilted>0</tilted></_>
    <_>
      <rects>
        <_>
          0 16 21 4 -1.</_>
        <_>
          7 16 7 4 3.</_></rects>
      <tilted>0</tilted></_>
    <_>
      <rects>
        <_>
          0 17 1 2 -1.</_>
        <_>
          0 18 1 1 2.</_></rects>
      <tilted>0</tilted></_>
    <_>
      <rects>
        <_>
          0 18 24 4 -1.</_>
        <_>
          8 18 8 4 3.</_></rects>
      <tilted>0</tilted></_>
    <_>
      <rects>
        <_>
          0 18 24 5 -1.</_>
        <_>
          8 18 8 5 3.</_></rects>
      <tilted>0</tilted></_>
    <_>
      <rects>
        <_>
          0 18 24 6 -1.</_>
        <_>
          8 18 8 6 3.</_></rects>
      <tilted>0</tilted></_>
    <_>
      <rects>
        <_>
          0 19 1 2 -1.</_>
        <_>
          0 20 1 1 2.</_></rects>
      <tilted>0</tilted></_>
    <_>
      <rects>
        <_>
          0 19 2 4 -1.</_>
        <_>
          0 21 2 2 2.</_></rects>
      <tilted>0</tilted></_>
    <_>
      <rects>
        <_>
          0 19 10 4 -1.</_>
        <_>
          0 19 5 2 2.</_>
        <_>
          5 21 5 2 2.</_></rects>
      <tilted>0</tilted></_>
    <_>
      <rects>
        <_>
          0 19 24 2 -1.</_>
        <_>
          8 19 8 2 3.</_></rects>
      <tilted>0</tilted></_>
    <_>
      <rects>
        <_>
          0 20 5 3 -1.</_>
        <_>
          0 21 5 1 3.</_></rects>
      <tilted>0</tilted></_>
    <_>
      <rects>
        <_>
          0 22 14 2 -1.</_>
        <_>
          0 22 7 1 2.</_>
        <_>
          7 23 7 1 2.</_></rects>
      <tilted>0</tilted></_>
    <_>
      <rects>
        <_>
          0 23 24 1 -1.</_>
        <_>
          12 23 12 1 2.</_></rects>
      <tilted>0</tilted></_>
    <_>
      <rects>
        <_>
          1 0 2 2 -1.</_>
        <_>
          2 0 1 2 2.</_></rects>
      <tilted>0</tilted></_>
    <_>
      <rects>
        <_>
          1 0 6 19 -1.</_>
        <_>
          3 0 2 19 3.</_></rects>
      <tilted>0</tilted></_>
    <_>
      <rects>
        <_>
          1 0 14 1 -1.</_>
        <_>
          8 0 7 1 2.</_></rects>
      <tilted>0</tilted></_>
    <_>
      <rects>
        <_>
          1 0 14 4 -1.</_>
        <_>
          1 2 14 2 2.</_></rects>
      <tilted>0</tilted></_>
    <_>
      <rects>
        <_>
          1 0 19 4 -1.</_>
        <_>
          1 2 19 2 2.</_></rects>
      <tilted>0</tilted></_>
    <_>
      <rects>
        <_>
          1 1 12 10 -1.</_>
        <_>
          1 1 6 5 2.</_>
        <_>
          7 6 6 5 2.</_></rects>
      <tilted>0</tilted></_>
    <_>
      <rects>
        <_>
          1 2 4 6 -1.</_>
        <_>
          1 2 2 3 2.</_>
        <_>
          3 5 2 3 2.</_></rects>
      <tilted>0</tilted></_>
    <_>
      <rects>
        <_>
          1 2 16 8 -1.</_>
        <_>
          1 2 8 4 2.</_>
        <_>
          9 6 8 4 2.</_></rects>
      <tilted>0</tilted></_>
    <_>
      <rects>
        <_>
          1 3 21 1 -1.</_>
        <_>
          8 3 7 1 3.</_></rects>
      <tilted>0</tilted></_>
    <_>
      <rects>
        <_>
          1 4 15 19 -1.</_>
        <_>
          6 4 5 19 3.</_></rects>
      <tilted>0</tilted></_>
    <_>
      <rects>
        <_>
          1 5 21 17 -1.</_>
        <_>
          8 5 7 17 3.</_></rects>
      <tilted>0</tilted></_>
    <_>
      <rects>
        <_>
          1 5 21 19 -1.</_>
        <_>
          8 5 7 19 3.</_></rects>
      <tilted>0</tilted></_>
    <_>
      <rects>
        <_>
          1 5 14 12 -1.</_>
        <_>
          1 9 14 4 3.</_></rects>
      <tilted>0</tilted></_>
    <_>
      <rects>
        <_>
          1 6 6 8 -1.</_>
        <_>
          3 6 2 8 3.</_></rects>
      <tilted>0</tilted></_>
    <_>
      <rects>
        <_>
          1 6 21 3 -1.</_>
        <_>
          8 6 7 3 3.</_></rects>
      <tilted>0</tilted></_>
    <_>
      <rects>
        <_>
          1 7 2 4 -1.</_>
        <_>
          1 9 2 2 2.</_></rects>
      <tilted>0</tilted></_>
    <_>
      <rects>
        <_>
          1 7 6 11 -1.</_>
        <_>
          3 7 2 11 3.</_></rects>
      <tilted>0</tilted></_>
    <_>
      <rects>
        <_>
          1 7 12 16 -1.</_>
        <_>
          1 7 6 8 2.</_>
        <_>
          7 15 6 8 2.</_></rects>
      <tilted>0</tilted></_>
    <_>
      <rects>
        <_>
          1 9 4 6 -1.</_>
        <_>
          1 11 4 2 3.</_></rects>
      <tilted>0</tilted></_>
    <_>
      <rects>
        <_>
          1 13 17 2 -1.</_>
        <_>
          1 14 17 1 2.</_></rects>
      <tilted>0</tilted></_>
    <_>
      <rects>
        <_>
          1 16 6 1 -1.</_>
        <_>
          3 16 2 1 3.</_></rects>
      <tilted>0</tilted></_>
    <_>
      <rects>
        <_>
          1 16 6 1 -1.</_>
        <_>
          4 16 3 1 2.</_></rects>
      <tilted>0</tilted></_>
    <_>
      <rects>
        <_>
          1 22 16 2 -1.</_>
        <_>
          1 22 8 1 2.</_>
        <_>
          9 23 8 1 2.</_></rects>
      <tilted>0</tilted></_>
    <_>
      <rects>
        <_>
          1 23 22 1 -1.</_>
        <_>
          12 23 11 1 2.</_></rects>
      <tilted>0</tilted></_>
    <_>
      <rects>
        <_>
          2 0 9 6 -1.</_>
        <_>
          2 3 9 3 2.</_></rects>
      <tilted>0</tilted></_>
    <_>
      <rects>
        <_>
          2 0 22 5 -1.</_>
        <_>
          13 0 11 5 2.</_></rects>
      <tilted>0</tilted></_>
    <_>
      <rects>
        <_>
          2 1 4 8 -1.</_>
        <_>
          2 1 2 4 2.</_>
        <_>
          4 5 2 4 2.</_></rects>
      <tilted>0</tilted></_>
    <_>
      <rects>
        <_>
          2 3 8 6 -1.</_>
        <_>
          2 3 4 3 2.</_>
        <_>
          6 6 4 3 2.</_></rects>
      <tilted>0</tilted></_>
    <_>
      <rects>
        <_>
          2 3 7 12 -1.</_>
        <_>
          2 7 7 4 3.</_></rects>
      <tilted>0</tilted></_>
    <_>
      <rects>
        <_>
          2 4 4 10 -1.</_>
        <_>
          2 4 2 5 2.</_>
        <_>
          4 9 2 5 2.</_></rects>
      <tilted>0</tilted></_>
    <_>
      <rects>
        <_>
          2 4 4 3 -1.</_>
        <_>
          2 5 4 1 3.</_></rects>
      <tilted>0</tilted></_>
    <_>
      <rects>
        <_>
          2 7 22 8 -1.</_>
        <_>
          2 7 11 4 2.</_>
        <_>
          13 11 11 4 2.</_></rects>
      <tilted>0</tilted></_>
    <_>
      <rects>
        <_>
          2 9 10 2 -1.</_>
        <_>
          2 9 5 1 2.</_>
        <_>
          7 10 5 1 2.</_></rects>
      <tilted>0</tilted></_>
    <_>
      <rects>
        <_>
          2 11 8 12 -1.</_>
        <_>
          2 11 4 6 2.</_>
        <_>
          6 17 4 6 2.</_></rects>
      <tilted>0</tilted></_>
    <_>
      <rects>
        <_>
          2 18 12 2 -1.</_>
        <_>
          2 19 12 1 2.</_></rects>
      <tilted>0</tilted></_>
    <_>
      <rects>
        <_>
          2 20 16 4 -1.</_>
        <_>
          2 22 16 2 2.</_></rects>
      <tilted>0</tilted></_>
    <_>
      <rects>
        <_>
          3 0 18 4 -1.</_>
        <_>
          3 2 18 2 2.</_></rects>
      <tilted>0</tilted></_>
    <_>
      <rects>
        <_>
